{"weights": [[[-1.267354282362846e-08, -1.4267764772987837e-09, 1.2777675890105419e-08, -1.6239588101509467e-10, 7.120031303420508e-09, 1.7772379587481906e-08, -1.2833141880733159e-08, 6.039577085666753e-09, 1.153699896125822e-09, -1.1298852222600426e-09, 3.048209003120041e-09, 7.986643589631805e-09, 3.923721064660835e-07, 6.453906956291044e-07, -2.308287500075279e-07, -8.909445218514044e-09, 3.850093306420771e-09, -1.887522692832962e-09, -5.513909524611077e-09, -6.81204193551152e-09, -1.4308102849920017e-08, -3.736032343159953e-09, 1.714583944004468e-08, 3.802884676158068e-09, 1.2457404598042886e-08, 2.6226175675736506e-10, -5.923433134903773e-09, -1.1579683194984238e-08, -1.627304689058884e-08, 3.3076490760441955e-09, 1.7730376257264564e-08, -1.6485913363710383e-09, 9.017669120309066e-09, 9.902223144877257e-07, 0.0001147858297325575, 0.00016642065868017342, -1.7013780033947322e-06, 0.00011922523939209264, 0.0015383616591122208, 0.001984952657332791, 0.0051327380195910636, 0.003425898345940147, -0.014088572358587034, -0.014578602036676894, 0.004896078579816749, 0.003527450185967464, -0.00014551012932544766, -0.0006011112944945533, -0.0006262320366697347, -9.64390375926592e-05, -1.284003982840003e-05, 2.536242415700355e-09, -1.2441614906491122e-08, -1.3456475193699457e-09, -1.4653300414710063e-08, -7.277446623390158e-09, -2.980523943443623e-08, 1.2978716654671944e-08, -1.1570024653867227e-08, 0.0005052811170018065, 0.00017718137852556516, -6.760513031694697e-06, -0.0002191348818915673, 0.007172044588401049, 0.01338484520795312, -0.008665571167309245, -0.00860779590955732, -0.005813977233828787, -0.14669663471138736, -0.2413812008213326, -0.09018893678543637, -0.03689634724007032, -0.030463632176936806, -0.026705809094658823, -0.011518066780047525, -0.011758237396177394, -0.010632618762630398, -0.01079240033742475, -0.002768710801471387, 0.0021124891098816124, 0.00070602924921038, -8.396535109470981e-06, 1.4436186625370173e-08, 1.760086690889729e-08, -1.011477906029208e-08, -2.531058127931361e-09, 4.224454380129004e-09, 0.0014543682389167574, -0.008079422470775406, -0.002991778022382031, 0.016094688031379117, 0.004553189418215349, 0.009457789857463721, -0.024101161196351268, 0.0027812655998343473, 0.02444147640841693, -0.14344940212220808, -0.2692399364891624, -0.20426170490726295, -0.15158653235456152, -0.18114896265467606, -0.16087525331187447, -0.07508878272363567, -0.03134375617832908, -0.11032531833070126, -0.18792766452296752, -0.08218354621488831, -0.062465613811448176, -0.05760585682782247, -0.004405822064504597, 0.0004430467774723157, -5.9730999468065025e-09, 1.4055327532456973e-08, 0.0005138184198282567, -1.7667649952873665e-05, 0.0035111425685575293, -0.012027839072571272, 0.0194437200998407, 0.11522544249363573, 0.135078276625137, 0.08606717514756258, 0.027986835210104952, 0.09673160630614748, 0.10626918301622731, 0.11162446150258508, 0.08644897023463176, -0.28159165273200754, 0.001217886842007828, -0.12229966279415841, -0.16000924525860077, -0.20268575431025437, -0.2231572321623922, -0.2654679748937473, -0.2271254953097964, -0.06410263052605727, -0.023201004730888545, -0.03396901760437456, -0.001737723715959059, 0.01377902900914755, 0.00020896817132986135, 1.52978221377847e-09, 1.7864474617422167e-08, -0.0016363209690974916, 0.028106581221575288, 0.03518629728040677, 0.1420656400664784, 0.3776069572120226, 0.3154672505575425, 0.07292263806559754, -0.2105259802555262, -0.18468338152100422, 0.1243600718081315, 0.2871889099692009, 0.48741573741375455, 0.12858984900564777, 0.07724139816136044, -0.010552216951761947, 0.1895550113998113, -0.004696653666944855, -0.18358117468781926, -0.40128392894288234, -0.23328924810651808, -0.061858138530124354, -0.03312742893263741, -0.10407059747994192, -0.050589641626399534, 0.008595688436164222, 0.0003305278634338689, 1.36555154906801e-08, 5.295200033542431e-06, 0.0010405737185800476, 0.03629053372572976, 0.12560580937431196, 0.3382559314386957, 0.4475898361012785, 0.17061715296230157, -0.1790468121332114, -0.14358991368402094, -0.1404237373502787, 0.18684992532994738, 0.6634471052277392, 0.552274945458746, 0.004927662267955922, -0.2779794132386738, -0.07353347823809059, 0.1398962405434644, -0.029735199061965676, -0.31542779894880285, -0.5448425047048794, -0.15710020471756014, -0.13800257621862336, -0.058313192459080086, -0.05652266984264588, -0.03225028558161345, -0.010985395095701789, 0.0024060776151308035, -2.5585597880334807e-09, 0.0024025442076637655, 0.005600136113977742, 0.08899487189206952, 0.22330505548335805, 0.33585644674633625, 0.3761472432505779, 0.20110242493039612, -0.07415638861365184, -0.24370485117502116, -0.32638882816297227, -0.042900366081149076, 0.16444112278070874, 0.023013520919497328, -0.023140954451296224, -0.48939680490044746, -0.12406921863086008, 0.17061076894939908, 0.2835488873892259, 0.12227547577170719, 0.16224950595247303, -0.03795967343955204, -0.03442214345407946, -0.02489880953301027, -0.05722247690993122, 0.10303381824027957, 0.0510182916510822, 0.0019795645506247407, -9.56076922208527e-09, 0.0020171741116492693, 0.004219396713877622, 0.09471903606427648, 0.1902306628277952, 0.236939290903871, 0.3493678928569178, 0.538465153092779, -0.03831755997650621, -0.2922655283121475, -0.19205951172950333, -0.27798975039036083, -0.1937975952780154, -0.22359179785482353, -0.009336000908538068, -0.06555192940298803, 0.1565168644170629, 0.5009365494976609, 0.5578014993039274, 0.16138122743242536, 0.46476725157749965, 0.0863608014882395, 0.23527349750065749, 0.2617453933401697, 0.13530808173751854, 0.31874827419262675, 0.04821562650879361, -0.0021653217392397085, -1.0011575691020907e-08, 0.0011022995019140105, 0.009350463028472313, 0.12164622687106943, 0.1872441508184089, 0.3106756507583886, 0.4781541306714453, 0.28265108418314727, -0.27576406363124106, -0.3783275439670675, -0.009565271488826315, 0.15562052834533124, 0.14430459674190108, 0.30138602644351464, 0.8271838314168217, 0.9238591605321558, 0.76112094251113, 1.4393187446206654, 0.9384011220181124, 0.301638330957142, 0.301941162535594, 0.22391211879565726, 0.3738643657977711, 0.1708017059600185, 0.2574831872350466, 0.25859617757075365, 0.0009410397829745959, 0.008003503007761866, 6.939124286538573e-10, 0.0007998020740452977, 0.03798033385261655, 0.18816345730267517, 0.16857242866259856, 0.33224872309299297, 0.23884701480352516, -0.08029541577159176, -0.37153298726297396, -0.08992625026211279, 0.057904805039401853, 0.054329772909669255, 0.13942167362532182, 0.9710011942935245, 1.1527466848806323, 0.6622802651008722, 0.9086128417893812, 1.1359657241351373, 0.9343739411184019, -0.008868209792199443, 0.4560127012584037, 0.21208300219440962, 0.2796468591934468, 0.20561499127217406, 0.22055957725044753, 0.282128918816831, 0.08029458631553153, 0.004034216708019686, 8.940500961495353e-08, 0.0007068922198576569, 0.015837591381873385, 0.0467025548589567, 0.1746278452002734, 0.21051174114885604, 0.25065419427688707, 0.22969081184729445, 0.025760195758798676, 0.1713803153107045, 0.015736519523963502, 0.11633708782588405, 0.36614180654710654, 0.8768683763224553, 0.4279545831141143, -0.09498197681760977, -0.36659820690349937, 0.4923977187414197, 1.059248474651896, 0.10666948911855999, 0.15098326365042655, 0.16243282095845205, -0.01587033847256405, 0.0867458528991765, -0.019020299026755495, 0.12855799652982985, 0.12911410893952663, 0.004653351287737933, 1.559590446043055e-07, 0.00472201274183092, 0.0061602705836809974, -0.07773226344671359, 0.2473468475986623, 0.4986064542238329, 0.38530538932315445, 0.31043904279533385, 0.4609639510639797, 0.14117858832028066, -0.02321175026642974, 0.26089238416427335, 0.3702823386065493, 0.25255514847063454, -0.45578743693693236, -1.0708971738718025, -1.075416686222881, 0.007577003726852699, 0.5214185265636808, -0.000725919556251584, -0.22789845047575522, -0.19967631898544355, 0.13206187922362517, 0.05178524937181422, -0.0657815499327764, 0.06559114551213059, 0.04651718079971484, -0.004320304239861934, -1.36420390326446e-08, 0.009362192001851328, 0.0094685654653964, -0.15259375035325584, 0.3156878798309269, 0.55500914692519, 0.12891310084962662, 0.17671103679164682, 0.36533116883859723, 0.009898377333352668, -0.13382253070453273, 0.013146196143515544, -0.35979919951328054, -0.6961577902334377, -1.4053270357424854, -1.8233729451178524, -1.2989069633905297, -0.4603193710331538, 0.11979854560723244, -0.4115912775048381, -0.2998944481538441, 0.17415853889530655, 0.14487377473253227, 0.06140453187566373, 0.005611954874715556, -0.021344591309951366, -0.03657063260429308, -0.040472084864290304, 5.095860070473949e-05, 0.008776861312299954, 0.012105625125911514, -0.18590726411277222, 0.013391384471988886, 0.11305196327030351, -0.1625500969009012, 0.02176960183184224, 0.08794118729548248, -0.5447372420158877, -0.8854982164990765, -1.0293885945889911, -1.1269840381345273, -1.4278665534688362, -1.3406458582519964, -1.1787732273125082, -0.9110323239064884, -0.15436914145129196, -0.04414829543691787, -0.13722197281277487, 0.11919293833564239, 0.5473259045329129, 0.24954236189524212, 0.2695899772996057, 0.02775162431083446, -0.06033606646142986, -0.056166783030819185, -0.0015103738856434828, 1.6709115831777193e-05, 0.0037805231934850054, 0.008641993751821807, -0.18051103141591257, -0.13945599716609686, -0.2970059751647027, -0.017083459293778462, 0.003384405715627285, -0.7794678004245214, -0.9649347433238638, -1.145224349340798, -1.498636902630221, -1.339256120125546, -1.715680980138974, -1.5534776163015214, -1.3858705152751793, -0.9135894787218019, 0.01854222140229094, 0.20306456767924577, 0.44118028975712825, 0.7924980538234238, 0.5772912295051938, 0.34488625352281194, 0.2961819869466967, 0.01843323428158458, -0.050312604789683794, -0.047818330339468126, -0.0006546513809504977, 2.0979909181299214e-08, 0.002121916631303652, 0.013527688712936373, 0.007163973179146605, 0.05135750801675834, -0.2592865865648187, -0.29825948851918416, -0.10734160677771737, -0.8150269309658558, -1.2480274852740383, -1.3592865843056998, -1.329705879244308, -1.455832951803976, -1.3351998858064007, -1.529598063169647, -1.5590405325476238, -0.7110183169940967, 0.04087426789852043, 0.39536933279685127, 0.8670436758538564, 0.8161287004668799, 0.6454699493281226, 0.24938618845899313, 0.1576109065289293, 0.05513817815422331, -0.07878250783867752, -0.017055549283428062, 0.0002051044660234776, 7.121708637670812e-09, 0.0030477453538526795, 0.00612898015864288, 0.010864617403447137, 0.23590091374737346, -0.04715838758904818, -0.33300879688190155, -0.49769068949187373, -0.6019932174005035, -1.019108583383172, -0.8846564609656278, -0.7841864888593285, -0.900651501725597, -1.0903542896216951, -1.2082387889873591, -1.2399761257855892, -0.22998098075278403, 0.3871258794034495, 0.22841358216321897, 0.6972060802098915, 0.5697614572563914, 0.34560635360139863, 0.1368379235647257, -0.06245954275461119, -0.06661338657146447, -0.08757086051990577, -0.005641421643668565, 0.0020490396350873775, -4.057876649154139e-05, 0.0006298477852213861, 0.018047171519363456, -0.03228252213544981, 0.1871399917458307, 0.12191368802703982, -0.2090390460317981, -0.5507177359718294, -0.522683151778827, -0.7673486890946215, -0.6295738211901891, -0.7005952526073894, -0.5377075451120037, -0.4926137800731357, -0.7029449678640431, -0.8494199986541793, 0.0003232269787191206, 0.24457605936284502, 0.42669651217112314, 0.5561771740222142, -0.08482139279579341, -0.14233742763765247, 0.019059569036572282, -0.13406583415838386, -0.18610104232699165, -0.11782196574075297, -0.017956377277958117, -0.010959467145296414, -1.9024015143696896e-08, 0.0021476492973242214, 0.05090858934337708, -0.04558227654790214, 0.1602713865081365, 0.3019741766423097, 0.06621210697772043, -0.23360953312012683, -0.16560343548978776, 0.05380349794910877, 0.25150470608615466, 0.20760406982254168, 0.15591182232900397, 0.23545308816684973, 0.01740190537401803, -0.38030715930692016, -0.5021555045999148, 0.002260653410116195, 0.5392677233275158, 0.044060865240684144, -0.7911621350886279, -0.6719652686609546, -0.179120401193902, -0.28794874355299294, -0.27161962743396273, -0.10889900729718936, -0.027128058129259842, -0.009960308384428612, -1.4543436347846265e-09, 0.005355637430322209, 0.031133087996474816, -0.06575604763141317, 0.044324141134536324, 0.3618463218856083, 0.12908517213173476, 0.013414854090236798, 0.18608691786744322, 0.3920907369709276, 0.6356773719983609, 0.4573081738177022, 0.47642857405442823, 0.47791843894806724, 0.4042490388028777, 0.2104242557340418, -0.484155204407531, -0.14232761831064683, -0.26470850604832513, -0.6640339732419919, -0.7465928431911282, -0.7991471296879206, -0.40064219242167187, -0.2921440102174109, -0.2886294841838809, -0.0667872091632329, -0.03370132389486471, 1.2411969430211658e-05, -7.715920935651179e-08, -9.110662606060744e-05, 0.017341080384393023, -0.004469137403283136, -0.07105954112791077, 0.14433162714124376, 0.19178385338101103, 0.1654332338287409, 0.12512861248096968, 0.14012115507248507, 0.22532445380576333, 0.4304024725275422, 0.4081176533740976, 0.7151607476541569, 0.8986410530688504, 0.5307409536924456, -0.09460676439629837, -0.29706827458596563, -0.47163844213393474, -0.5945294936665808, -0.44820511243307304, -0.5952466294206875, -0.33101012974161226, -0.19440995159195165, -0.18650491534479252, -0.0377274446000234, -0.005003268470556638, 2.0428808175896566e-06, -7.06401908584368e-08, 1.767701181837915e-06, 0.012241655605805514, 0.049425437598937076, 0.06394804064943821, 0.11958758865292184, 0.276330121050674, 0.2084071345332168, 0.22433140081412223, 0.34673744116211197, -0.14353837700601302, -0.17055827958208247, 0.48797827850090675, 0.8752442197264455, 0.8233729898361778, 0.45220296735006915, 0.19407696275976585, 0.055765331317217996, 0.0886986899977714, -0.1296154943006952, -0.3745845793795326, -0.4678925159264809, -0.2752176702815604, -0.0339569008189217, -0.11433499951260094, -0.03895834484308925, -0.00048074230028924875, 3.76592495950749e-06, 8.383311226691933e-10, -1.9594174361893863e-08, 0.0005817927600868213, 0.01523627613679243, 0.08795278620937523, 0.24688962079659588, 0.3705344590580991, 0.48503282821059357, 0.7117831830384748, 0.6594285095632942, 0.12880355413037345, 0.3165429476965267, 0.4670093608937705, 0.40324730942614995, 0.36179338800547556, 0.034433816985000885, 0.023530002182778603, 0.19469914764004953, 0.11323464360861595, -0.38990821660262914, -0.2824397605832237, -0.17320166697081368, -0.27478588578669233, -0.07256537597522393, -0.036834731538546245, -0.01049205771901914, -0.00013143826468869053, -8.107965943522311e-09, 7.214195962561256e-09, -7.624630314468565e-09, 0.00011538073824491748, 0.006776515365787103, 0.04139118681917233, 0.15899591490787915, 0.29192734640567347, 0.18530295520403472, 0.3451775330454556, 0.14346023211787212, 0.043892499354450665, 0.33820977824723447, 0.3830972524255609, 0.3788742559970319, -0.01662701021901908, -0.3096994286191804, -0.20193114514923255, 0.01501457955615611, -0.2378014576410328, -0.36131114603973047, -0.1799736717204787, -0.19440422964942441, -0.17656126402678032, -0.05992805565604769, 0.010204248179539844, 0.0011074786535790059, -3.5715715877902143e-05, -1.069517185752147e-08, 8.257510785741444e-10, -2.6341897282279932e-08, 3.150127566539734e-05, -0.0005004367727654665, -0.0004504063240336665, 0.06334880297783267, 0.06504114523042108, -0.10419786106213053, -0.12910664066583155, -0.2094036558298752, 0.060552219835518235, 0.20690214056637096, 0.3281939552765445, -0.08006763769165078, 0.04663848465106311, -0.12881455354922489, -0.1490882042360381, -0.08070432033275987, 0.08104565128874044, 0.08882375515444087, 0.003009626398405099, -0.07984023535648983, -0.07022802381878382, -0.039202053810291404, 0.0016120792502382533, -1.2819765945865365e-05, -2.618950848194061e-09, 5.59088126060845e-09, -3.0715083301172223e-09, -2.6230444016308038e-09, -9.508113528139256e-09, -0.001642745519989993, -0.017751990134764393, 0.016260619762187345, 0.03263921919756377, -0.030114642660257776, -0.13645885079454106, -0.03515887563442338, 0.1142336662125161, 0.02847201123112792, -0.11212255997619631, 0.09545129279735821, 0.20060705012511876, 0.14511282376619086, 0.20160646807930127, 0.17099137427918012, 0.22575963842641003, 0.19152838416930745, 0.03381800422451905, -0.0010294804118292846, 0.01725176802146959, 0.0005870603746933043, -1.4708930951800793e-05, 2.531583592953287e-06, -6.739658204474073e-09, 6.275678910516555e-10, -8.01583821698127e-09, -8.210439951879493e-09, 1.1199869516175165e-08, -4.162244181476777e-09, 1.979148800024114e-05, 4.984041336258681e-05, 0.00018670330810276517, 0.0007653307098395942, 0.0010468089320191673, 0.011481153729807578, 0.006722213162838398, -0.015624193678501874, -0.002059198629283276, 0.008293112630894807, -0.005924062287908916, -0.03040258833327247, -0.03691760474535089, -0.012424806559057977, -0.007767340069843015, -0.0007431154726016538, -0.020867338032231723, -0.008670081832479692, 0.018969545336901428, 0.004203947885473777, -2.8216912692123812e-08, 6.086774807438899e-09, -3.9168717318994617e-10, -1.864776818861862e-09], [6.298238050884258e-09, 4.434922521167228e-09, 6.807195091053695e-10, -4.897141120665885e-09, 9.65711714473809e-09, 3.247303676103532e-09, -2.181438597018984e-08, -7.714095590751159e-09, -1.1476284767665633e-08, 1.5209410803244192e-09, -8.526921425238344e-10, 6.287248877225287e-09, 1.838010404792148e-06, 4.0514540710280124e-05, 4.0577236762840746e-05, 1.6812100979651167e-06, -1.0776405380493902e-09, -4.437689221187633e-09, 1.9304259001408353e-08, -1.5169856249389528e-08, 4.615603067365817e-09, -4.7691130287259e-09, -1.8145500440636858e-08, -4.931781742293965e-09, -1.96631204145569e-08, -1.5228044834468745e-08, 9.220236020919164e-09, 1.3695308315889437e-08, 1.536535650151443e-08, 2.2776353197083235e-11, 3.4277063490935867e-09, -5.671947061427141e-11, -2.45144581889862e-08, -2.0232287973678615e-06, -0.0007602973370165077, -0.001245115958911456, -0.009239063737619953, -0.01065886283513638, -0.021451870203264733, -0.0015569454869567962, 0.005083251163008166, 0.0016201091358636062, -0.0009974996465964981, -0.002231956289312332, -0.018308360246886014, -0.02371764406903607, -0.008266272528547128, -0.017868930547946645, -0.011540920247526704, -0.0007290783033037581, -0.0008842870398812417, -7.20413075934811e-05, -8.037310819009013e-09, -2.4728151879606065e-09, 5.775311734395322e-09, 1.511735054905002e-08, 1.0214491731013814e-08, 3.6986400096483905e-09, -3.933285951361694e-08, 3.271832132960082e-05, 7.019522617420107e-07, -1.1830398928112737e-05, -0.0008000646183272876, -0.018227103646480596, -0.08686617958008758, -0.1251703561855656, -0.06794976200000087, -0.04227574609720031, -0.09832226137720382, -0.09285749916886382, -0.04756684030699991, -0.1190221486487999, -0.17626292666219723, -0.2393949616628677, -0.17836358630999585, -0.15562143352208743, -0.10255964816863758, -0.016733069245485743, -0.0006518638920506993, -0.003011481278921163, -0.0022140324078648516, -2.886254994329471e-05, -9.672817842543806e-09, -4.842549154072091e-10, -1.6078673117392407e-08, -2.590037820125765e-09, -6.918902514030566e-08, 0.00010690725169446243, -0.0272721451749311, -0.05462780041115195, -0.061619356041145004, -0.07854623429165274, -0.1228552546181752, -0.19120001207336063, -0.10543298185326196, -0.13701459583970457, -0.1623181822475611, -0.08445790937371458, -0.07969193148378133, -0.043221032454853744, -0.2109546935615471, -0.6129238566071913, -0.7812419780910386, -0.6354674312259679, -0.5519940469911472, -0.14863875080356617, -0.10517022683324964, -0.059375834229427854, -0.03664665360219021, 0.0006561076361615715, 4.637802259693926e-05, -2.081113980048768e-09, -4.673876904246428e-09, -3.681920104943242e-08, 3.321444029792297e-07, 0.0007242808464605202, -0.0463224037607803, -0.070496136942236, -0.04751684265890583, -0.10128783211474725, -0.09054878800037065, 0.014836777870991852, 0.19627064870194122, 0.4904356956136106, 0.4887411744406364, 0.6474315101858975, 0.38803509850804563, -0.07283801925194502, -0.20742919959312567, -0.10829023618807654, -0.3192056102829479, -0.358836268309671, -0.2511535311349298, -0.19381095431076092, -0.09651604559157857, -0.0562305211330986, -0.09380736975122088, -0.010039064985371625, -0.0017344349034228203, -2.1844849031197513e-07, 4.7141416735490435e-09, 1.5460880972045716e-08, 0.016044626658068398, 0.0010988914539667098, -0.07473657461762, 0.0035587912999748123, 0.023118962990478928, -0.07238508725213783, -0.12462352130703089, -0.21009377721866998, 0.061389995654361096, 0.39787239897394466, 0.4492326340090826, 0.6313401648600251, 0.40213544542855273, 0.14309177399305292, 0.08551179454493853, 0.2340508185311652, -0.007174789324025372, -0.10876563365247785, -0.33632876537725814, -0.5259073978965453, -0.33672008751294097, -0.41880105342223145, -0.38685334798379983, -0.09090826070694004, -0.010632081183229601, -9.801587470019776e-06, -8.253921785219989e-09, -9.241042577745128e-09, 0.00019439088978551682, 0.00041597844634159124, -0.07092058619391527, 0.04412153172489408, 0.09294677909682908, 0.028767155645291767, -0.3489837535549893, -0.5194176710740042, -0.18118493022374393, 0.3277471248755698, 0.49546687554244306, 0.12478678916212263, 0.2997285704904033, 0.3712375782030258, 0.4065126071892302, 0.6710583896177518, 0.8702683763726998, 0.3363618565172433, -0.2055579904964165, -0.3918271310661063, -0.4204555188638453, -0.4272317202052535, -0.2801254554116997, -0.0973999857255017, -0.024120139652769483, -0.00020533291879316416, 9.758913700030424e-09, 0.0005434862508182474, 0.003949169218519779, 0.03177360597923957, -0.0371582560846181, 0.05446389713671475, 0.023453675678875973, -0.11674335202810746, -0.6137035534046366, -0.47429860465842544, -0.13381190347100977, 0.34200297130255375, 0.13475659589390881, -0.25983351837004764, -0.4082944707161743, -0.40251675038755685, -0.1062866218286947, 0.48290399252787347, 0.6082849442957886, -0.042614925110225035, -0.47939726937680377, -0.13146029126372222, 0.10006671956707654, 0.2957357857335042, -0.05607675475377088, -0.033100632765241625, -0.04321140103430818, -0.0002234418233663172, -7.25434608164902e-09, -2.633956002140311e-05, 0.019792566195973242, 0.04401651492220735, -0.015071574397084583, -0.08906799435779245, 0.03195987146861066, -0.2545401666317573, -0.6282528833367078, -0.2739250082489699, -0.0703329390504133, -0.09472036516006548, -0.7583623237658932, -0.8752925657359187, -0.28547660846387557, -0.23954493339286012, 0.2611387284302665, 0.48376987425854556, 0.4902176673134848, -0.15061006044271955, -0.3338182731181758, -0.3274632220529403, -0.13364963308001626, 0.35911907857625963, -0.11744938424799792, -0.41104369954548653, -0.1313793323993873, -0.0006083290455880954, -1.6470386128494196e-06, -0.0005209450278437236, 0.00978136432644256, 0.01864851336937353, -0.04990699358255831, -0.2108871945815119, -0.4267384295670011, -0.720327821599272, -0.76106998266184, -0.3413523971485915, -0.2416122888442084, -0.5808122103989066, -0.6869121090169811, -0.049278029727446014, -0.05245926342587949, -0.20780414738842007, 0.060636155905582044, 0.6000912316299368, 0.930514697738344, 1.0242241373477516, 0.654961287721063, 0.22953458008781683, 0.07645937251599245, 0.36920683179723274, 0.09060015878050383, -0.5363257570884308, -0.11997007201093836, -0.0015367589234678686, -3.8896109602989306e-06, -0.00039223125300154603, -0.0017041215954358446, 0.048571101304280107, -0.03039069905623897, -0.20648603961356551, -0.31742315923881065, -0.159943313078634, -0.3950195690712329, -0.5918542984097985, -0.20676874722785485, -0.36902754875801247, -0.23813659766091472, -0.033596023320504306, -0.17917260248950753, -0.5280883660921124, -0.7225107483735488, -0.21881715793657922, 0.7239482221461289, 1.339395327634999, 1.0843875007742427, 0.8368749664066572, 0.832554916301293, 0.47959616075053363, 0.22682415094008332, -0.43778600892689273, -0.14331213822275002, -0.0027752041373290434, 1.5130990280873202e-05, 0.00130753671606644, 0.02330784500965444, 0.036761236093463746, -0.07754515663074338, 0.017566062880302883, 0.21841025222769106, 0.34223351946009756, -0.08455605080532108, -0.7519731921773147, -0.23355244920687931, -0.2537677073045098, -0.17716685817288788, -0.09070020742785372, -0.721417350610763, -1.1371975737913338, -1.4912482656870585, -1.2648262791532816, -0.044695644621264255, 1.0523617045763098, 1.3737020160886435, 1.0937438240865374, 1.0142995935607033, 0.6859488031259516, 0.5650264367949754, -0.2196837929363437, -0.19415466293249617, -0.0012213329694180184, 9.604064378026264e-06, 0.014375863802212261, 0.03719653125582419, 0.0029684041017318066, -0.06777217382701932, 0.07543861812452646, 0.597387362498912, 0.3448011710565283, -0.17133335598583155, -0.30493857010709596, 0.41749447700596026, 0.24049025097651996, 0.2861093450685703, -0.336797962003759, -1.1729747206274646, -1.7138959401299003, -2.0635274487543627, -1.4570813891147947, 0.0525919867371878, 1.1146319224488497, 1.0515811378548525, 0.6847091946712379, 0.8080800317501454, 1.1032672014061706, 0.5995831057536529, -0.062414081234152124, -0.06050075430991905, 0.00012513926781231193, -1.3898875559144048e-08, 0.03151726667266817, 0.03378353088542287, 0.021133177471883032, 0.18509964223004888, 0.29244052881752947, 0.43447967556083045, 0.5592773762968312, -0.44187973417194415, 0.19426466103211992, 0.57438361526244, 0.34566552021899316, 0.033094428695691264, -0.39293163620446997, -1.1395297921414058, -1.85303581998368, -2.1144993088323627, -1.1938285371356319, 0.1358819632683663, 0.6438508548910176, 0.2888168606927303, 0.1758551500918581, 0.38608348404643084, 0.8149298752688491, 0.13466744933611813, -0.09104429148910509, 0.005854067360767852, 0.0005253799396223815, -1.2272154075454198e-07, 0.01732673849107588, 0.03329906288546397, 0.06867975759177015, 0.2888786566260589, 0.5635424835687951, 0.47424242588626125, 0.6360997517163413, -0.3442857314444407, 0.07723031809566423, 0.8227244225212319, 0.10317510853712623, 0.04149577021356153, -0.7227255262294687, -1.487568847698393, -1.9541931216865793, -1.7131179747929979, -0.36053977655850994, 0.6835827486381852, 1.1498378423187805, 1.0203479520046217, 0.8460488868166065, 0.5720245638338441, 0.31374875536297103, -0.24032807739910622, -0.11925305298079127, 0.0165246424892844, 5.820910220639661e-05, 2.162034986063279e-07, 0.0027920328562862718, -0.021468292557502724, 0.11162856850032997, 0.10834755693735845, 0.7178182396237227, 0.5398742401930002, 0.39891493624992563, 0.09180519038218607, 0.291093516728749, 0.3660236369922932, -0.15625022200529382, -0.18620003624672982, -1.0859680666095917, -1.5269497391505191, -1.4790835846234553, -0.7307806406213325, 0.49885730150950935, 0.9791277250517443, 1.118137620168231, 1.3017167590774228, 1.072560365816341, 0.46903121228154426, 0.0621318597741825, -0.35076506495602044, -0.006853250496209051, 0.02422971803760314, 1.0408716303904276e-06, 1.5534543209172746e-06, 0.0010033857979348298, -0.07885573519818122, 0.030631158827641457, -0.01819661122165432, 0.4282112708419989, 0.7154975368659404, -0.08125689076524677, -0.03766753179115317, 0.08375168752180091, 0.07254709377823658, -0.040739053751937516, -0.47639585328751105, -1.0604211242480535, -1.2022979365188287, -1.0425025935523697, -0.017336364217464505, 0.9417578130776757, 1.0019409082130957, 0.7189100282974333, 0.5454801486994365, 0.8572562764298212, 0.42446302630352317, -0.44609008438119707, -0.42984100429855865, -0.007071844274864956, -0.0015926842100131772, 2.6076452333171142e-05, -2.8464547530230467e-08, 0.0002251515234679201, -0.05073680080807249, -0.13707300452315607, -0.13556608491862557, 0.20883539949599197, 0.3000648304826965, 0.07799922569927058, 0.359123660161889, 0.6523759649554589, 0.14287176088162815, -0.20268786078843642, -0.8615728765690719, -1.3851165645204706, -1.1189375410453724, -0.47625103815516545, 0.4611847181796026, 1.1383796324931277, 0.6899614600468984, -0.14641877315747512, -0.02789019607817242, 0.3891326957500963, -0.15886435308066685, -0.5425999013010039, -0.08032522220584644, 0.03374243958733303, 0.00020000859969872343, 0.00024076153258326008, -2.1701269204707797e-09, -3.265107520735521e-05, -0.03547530837968034, -0.38317073492530296, -0.35800217228575426, -0.3576168514749123, 0.09485657189268042, -0.04353726962960108, 0.4240823495838772, 0.4585292973337507, 0.35283968939851035, -0.3561029634895151, -0.6868157133018807, -0.9838682134252621, -0.9540744170360146, -0.09737462577017468, 0.8335025625706528, 0.7634543114533205, 0.34512608561017166, -0.3977225410807189, 0.29042670835837514, -0.09433046695130821, -0.3231069770647276, -0.06259774407353415, -0.1454262566933143, 0.01746751741486121, 0.0005568831043090824, 0.00029218869789833664, -3.11214950576109e-09, 0.0017086375401608523, -0.04708071360146737, -0.38244282841400495, -0.5049487645398242, -0.7083863814506506, -0.0743512355681008, 0.45922697419877917, 0.13107769224197088, 0.08156015628198661, -0.14020004850222334, -0.28996316202386535, -0.6363231404959933, -0.6266616526402184, 0.037540976935405646, 0.47540904036498216, 0.16926443958112336, 0.10103162667030528, -0.31643205148247566, -0.375537589620948, -0.24690968392204185, -0.3597152108103892, 0.052819110465871774, -0.16127158824485788, -0.20176810730920935, 0.006330087069076622, 0.0007730805014516903, 0.00026019472638436135, 3.7191670983127265e-09, 0.004299459054704443, -0.0395320718645744, -0.2522800993408072, -0.4341705096559926, -0.47744155382975517, -0.23600896112607722, 0.26413737597511117, 0.03155710611731672, 0.20748988765327703, 0.30419874585885237, 0.13764672351816257, 0.07662222310494077, 0.1821126489449785, 0.033418220761961936, -0.005551875262347428, -0.06067637753132323, -0.5640729200424206, -0.4300504315669228, -0.08720426246296357, -0.12535343432196286, 0.0421753235432057, -0.21028288092531802, -0.343533434948866, -0.12249526550779699, 0.0028723651747633505, 0.0018328821247098296, -8.587491426980922e-09, -1.0299199574372146e-08, -1.8126513455242285e-05, -0.03844008874083709, -0.14547316033139132, -0.22316014815926377, 0.16067332485044733, 0.2271504620175735, 0.23299339082677079, -0.10222385065538196, -0.37279917109379307, 0.40619166656997746, 0.4680012278097536, 0.13311607622707008, -0.08989045468043186, -0.09215489350347193, -0.42433341410829056, -0.6454586221579072, -0.5550543885530088, -0.04291333784098335, 0.07278682146027723, -0.3459077443215104, 0.042963969047925155, -0.09886388316685958, -0.20089183742390673, 0.02630555386642858, 0.0018292878543001284, 0.01401011663081757, 1.7347157424729713e-08, 9.430118026923402e-09, -9.607183520260501e-07, -0.015038105877370629, -0.05371386340378742, -0.12397738711874791, 0.26619781969164563, 0.33156841637264073, 0.3132495798513517, 0.41700987594497535, 0.2791541427261575, 0.34513595779802303, 0.4039980693633381, -0.29016222614957743, -0.49630433859199063, -0.8555568771268156, -0.5426086165887901, -0.008201036344943588, 0.1801270430596796, -0.2621110199153135, -0.6548095461676621, -0.3227825732845849, -0.08187422144062731, 0.08332100669395358, 0.046696603278225494, 0.049944590256991314, 0.006008170041328229, 0.00177949978517186, 3.319689094734946e-08, -1.4585011561028896e-08, -1.1762382031308095e-08, -0.0039723415988171945, -0.025492752640212273, -0.053540145590231125, 0.02215286723581644, 0.17096738491648647, 0.17745596015320364, 0.3029666525562832, 0.4110786952364291, 0.5209855423095743, 0.39422656771569103, -0.24533772441927915, -0.14834860361025384, 0.17675772728858077, 0.21528987491448148, -0.024616764838159687, -0.45488628515821966, -0.9309259707131476, -0.5540777740127689, -0.19640256011260737, -0.14060060645999925, 0.17687611786900143, 0.07834816038599199, 0.009300757494484332, 0.005098322390043395, -0.00022550153222874046, 1.2133887212495321e-08, 1.9527360549352773e-08, 5.466894521022167e-09, -0.0022447859521109296, -0.017803020608882468, -0.03818362334454959, -0.07267221867438683, -0.04420271839563064, -0.04005834422940662, -0.15919619806905846, -0.16058195989886123, -0.2491694317826349, -0.23855174478160684, 0.021778006109597903, -0.1304124118964464, -0.15252341567110878, -0.31703069978946613, -0.49038227089629777, -0.3860187630490016, -0.33913059521355426, -0.19804793696502246, -0.03205084434191309, 0.010708434214699046, 0.041529251761047326, 0.0748809040428803, -0.006086996829657519, 0.0019993761948829646, 2.2828245500006104e-09, -7.175425634744169e-09, -3.203693128342706e-09, -5.903599834270286e-09, -2.4258527486249078e-05, -0.000989112021788837, -0.0071589460897390905, 6.96051601961087e-05, 0.054267638852432735, 0.10584650076715615, 0.14161337639993035, 0.0467091111032344, -0.07637048983173135, 0.020621170966155795, 0.024661659416818922, -0.16301900312756576, -0.1305371677546726, -0.21859095506670703, -0.15259125255958556, -0.1795861140215547, -0.11175493742351414, 0.03303006391288454, 0.10207775557539356, 0.1018990710594107, 0.024349536742674288, 0.0233897971343141, -0.010435974435579528, 0.0002505943429268238, -3.739936010161565e-08, 9.727463027498763e-09, -5.5228791456047986e-09, -1.5746942711907962e-08, -1.7431902714471115e-08, 1.0823431042212956e-08, 0.0013059945382266004, 0.0016678863512222376, 0.022464967502444113, 0.0282867344805682, 0.058288817544933, 0.04091543010491058, -0.0014500252147779638, -0.0670419662248625, -0.04212263067998444, -0.017474586712861482, -0.02387369269546737, -0.019551196620928333, -0.018370690749793764, -0.0492251234958607, -0.07608589296462301, -0.043233648586826295, 0.013853565429978744, 0.06225223208495964, 0.008450736900467895, 0.0003712756863118305, 3.978842045465657e-06, -4.145676807305699e-07, -7.721889842029e-09, -1.080313611310944e-08, 2.767399628879059e-09, -1.3225776013755287e-08, -6.673402681548168e-09, 1.929331363032204e-08, -2.5800317484422916e-06, -9.162159519709202e-06, 0.0006522083541573302, -0.0023484842938340527, 0.0003302608032358568, 0.0007786069666487012, 0.0021487751900199806, 0.005266813889395359, 0.009923752778392686, 0.0065544487481061205, 0.0015306973453784135, 0.00043258233463349223, 0.006142502700003554, 0.0005445603274435656, -0.008445106561763204, -0.0011196587705425453, -0.0017835887847265043, -0.00037612230812176346, 0.004201052579302437, -0.0009096572668948871, 7.23943551346343e-11, 5.920666348782047e-09, 2.1846079359589942e-08, 2.3846550559427425e-10], [-7.545681649167202e-09, 2.7858408251081086e-09, -2.7588003052476397e-08, -8.80571439688706e-10, 3.592293585603284e-09, 3.9963571922715863e-10, 2.5134989011135584e-08, -1.777849668349234e-09, 7.405512768252177e-10, -3.196047880723614e-09, 5.61908196221879e-09, -1.1369511102967836e-08, -0.0006090821632158925, -0.001333035039874995, 7.337813670613371e-07, 1.49093540239242e-08, -4.592749932480845e-09, -2.2473824570805468e-08, 3.42600302849871e-09, -1.4283902931437005e-08, 1.714389417200378e-09, -1.0263882876170855e-08, -4.368608864985655e-09, 1.660049425922805e-08, 1.8696947585622684e-10, -1.2060017678058668e-08, 1.8172126172154963e-09, 1.520617947748406e-08, 5.571099548189407e-09, -2.567282721598284e-08, 1.2069449230307297e-08, 2.643608729435848e-08, -5.958560233184478e-08, -7.550037249559125e-07, -0.0016590523957568006, -0.002656292964275312, -0.07465116818231639, -0.017149613903450968, -0.00550708778407455, -0.010524121834808827, -0.10681683079119825, -0.08045518477199962, -0.013131984914071882, -0.007118920666174281, -0.005511046821224608, -0.00427200017115881, -0.0013503950704500595, -0.0014361607976930892, -0.00496647642321736, -0.0004666092739956846, -6.67832147751278e-05, -6.594986517218178e-05, -1.8463742688108972e-08, -1.9230096427149635e-09, -1.0300815904091187e-08, -6.663810655172422e-09, -4.659671139909213e-09, -1.0994411989989098e-08, -3.333511534000727e-09, -7.809129020112634e-06, -9.207113400059694e-06, -1.4913428606062907e-05, -0.007952323752576118, -0.01633421581681841, -0.09080559717078868, -0.08018110376875986, -0.04908792052441362, -0.0233183928507897, -0.12559343906763154, -0.16385051659187286, -0.0670995049777614, -0.05386985321733398, -0.06238549833877539, -0.07069724310669857, -0.06404292964311387, -0.04617119269371945, -0.03623342613754961, -0.018609362351671224, -0.011706795416661737, 0.0070103696758092434, 0.10878436146415496, 0.07040691376433537, -6.5128948587478326e-09, -1.2693212061892699e-08, 5.006723161679363e-09, -3.5599083618345875e-10, -1.931938490248415e-08, -2.2758832011508454e-05, -1.4314936556827075e-05, -0.0010222821962533502, -0.031491966545339874, 0.004492054505509684, -0.05703991380720508, -0.03837515188017319, 0.009514965831267293, -0.09647210194295906, -0.21971229071567094, -0.23935437955546013, -0.1802529871555024, -0.1338896363824812, -0.23650377732922354, -0.28969775722446434, -0.18711235841009752, -0.15199825508693107, -0.08787005340590154, -0.04505815018012936, -0.02905417089913124, -0.00029104041649172577, 0.10603163078526807, 0.07008412059411949, 2.5225643207838763e-05, 2.8978147354166857e-09, 6.686795689969039e-10, -5.350329848319666e-09, 1.2175188697333936e-08, 0.005746552124520568, 0.00871369126447111, -0.0069815413158279644, 0.010856218744442822, 0.009800059296142867, -0.21462015945304808, -0.20163149665954813, -0.14685197087783794, -0.062083724281183486, -0.3684711743655379, -0.7539644091837927, -0.7451228686244419, -0.49635160378907045, -0.4765527783815754, -0.4681854169436355, -0.47319926011137076, -0.3525484544701865, -0.20672833479182212, -0.04153608674847351, -0.030318017603472292, 0.005981818332658952, 0.13996684692731134, 0.08823068070851812, 0.00014798781393336922, -1.4492040036308208e-06, -1.904114037705081e-09, 1.6613551468723097e-08, -1.8284037345919421e-06, 0.013160654625672853, 0.006797350250996362, 0.03942840542679991, -0.061670698283104695, -0.1264780772221867, -0.16699740432824908, -0.2594247755115311, -0.45551552126698164, -0.691352706541692, -1.2807254134961255, -1.5632345709701416, -1.742197954340625, -1.5550246014735905, -1.4300258097007517, -1.3284630614704838, -0.9803383764997844, -0.6087955805951474, -0.430341760993053, -0.3198386464856265, -0.23512202952513153, -0.07941944693286349, 0.05463073081222194, 0.07019153035695136, -0.005500309028807263, -2.0601294767408076e-06, 9.05029084947232e-09, 2.4513635354807686e-05, -0.019926192319577193, 0.009996089404423465, 0.034189963198262084, 0.015067194819889367, 0.10497627084609024, 0.44303833807826404, 0.43220253311559226, 0.6865027419359382, 0.870719016580339, 0.08336226743381943, -0.22202488543514357, -0.2934538099753019, -0.3365428389253892, -0.3054016362068593, -0.30963482191502917, -0.15445095453386318, -0.15242493994188006, -0.8923223483787026, -0.5760232153657618, -0.5162746109961713, -0.7248608004259126, -0.5286787695701345, -0.18496793457411465, -0.05900120400735913, -0.07460386320351817, 0.00030097005815358125, 5.490535552076547e-09, 0.0006519878112983238, -0.0607611409884973, 0.06633695151046871, 0.12536575549866288, 0.16004581153190484, 0.311224254550902, 0.3004781527246936, 0.776297034219398, 1.0607257027754597, 0.7673965140107994, 0.5172768197268883, 1.3267977609381842, 1.7472010479144784, 1.3530665485308184, 1.383470740580049, 1.1977852870644834, 0.4219091755948154, 0.20298006359615622, -0.501854058097877, -0.4978888999831472, -0.7274477596301053, -0.8758192556410754, -0.7436389737978195, -0.5977582397475982, -0.22238880052939222, -0.09316524033085939, 0.0035192163597145905, -2.6561338599723877e-09, 0.0002517381311764906, -0.03213748159991357, 0.13913969080750255, 0.30857401300756604, 0.22023485290841463, 0.28235965303697785, 0.7306497607511486, 0.8769900069473877, 0.8718632200556631, 0.6258377242088131, 0.6921776580327577, 1.5725062834548382, 1.5936916260613148, 1.6070459664240886, 1.2468194232491954, 0.8603885680071036, 0.12031962106092389, 0.3832786847794918, -0.08789010892080944, -0.2263509921144527, -0.633750528356495, -0.7805046696550803, -0.8066459203730344, -0.7015300775186551, -0.20113514127454638, -0.09928660949493451, 0.007241935229812411, 9.729334082676196e-09, 0.000765165481513486, 0.0514464913059341, 0.22090063224119053, 0.40675635521481335, 0.3618748365622966, 0.39671657516220327, 0.8446343269483454, 1.150226525345413, 1.174305876680358, 1.009438910078542, 0.8655817462017013, 1.1349655821447073, 1.460453442530052, 1.4896978026957026, 0.8404520981633378, 0.22565197579105203, 0.18117150596194856, -0.00658373106191512, -0.306359745695246, -0.04782985567796545, -0.07578147703862208, -0.37433556809479407, -0.6056819640460258, -0.4399590263368608, -0.07743676753088755, -0.01185278101400515, 0.01694219572346687, -2.914327607203033e-09, 5.641785773556968e-05, 0.07021197519800708, 0.1785913839300009, 0.30925032339095887, 0.41078709264259344, 0.6302950798032976, 0.6724694105958446, 0.6433371828270952, 0.9578389128195914, 0.9687658055478973, 0.8702365910573361, 0.6463423459145777, 1.3379131391573964, 1.1288908761460061, 0.03965211086951782, -0.40583673731835446, -0.4133204745328992, -0.0641035365033661, -0.12509919452861823, 0.09522450446235854, 0.15897757806653737, -0.2515514694779594, -0.46146808780222004, -0.2712573910486598, 0.032556153119676905, 0.12130210318405692, 0.005400669845672895, 1.605712771395243e-07, 4.200765433973954e-05, 0.06617323436588561, 0.1534670609921179, 0.1516137067423195, 0.29937019294239275, 0.30977298861437197, 0.2760972957616716, -0.13964045555719223, -0.05029346795242148, -0.6702128362663029, -0.5841942250991942, -1.0497663783367597, -0.5474551810951006, -0.3930207503640147, -0.1524496154773417, -0.2766383051992073, 0.2600785194726076, 0.5554399956311967, 0.20725411813494224, 0.36131362058363947, -0.1967286831987391, -0.40614741153276634, -0.523489996202691, -0.20416043201045886, 0.11718951041482055, 0.11532335794398918, 0.0020179516726164834, 1.391006091417449e-07, -5.969326796799615e-05, 0.009508143518461082, 0.04741637378204432, 0.2255957283856705, 0.13696930080055694, -0.13770685899827287, -0.20860147991240582, -0.7602813803289039, -0.9240592433024576, -1.8598955728900357, -1.9934382204699879, -1.9807085793923924, -1.2789003201199818, -0.2679806468388994, 0.03161914994632358, -0.054793062619933254, 0.5729223713467703, 0.8062042408456355, 0.5331946705143481, -0.22078966066558062, -0.4770454632736695, -0.497107560729636, -0.6305175156828261, -0.4261978315171918, 0.11030090536782573, 0.0835847274313666, 0.018983912641738095, -4.265833759897828e-06, -0.0005420718590709949, 0.0002577712347633145, 0.03525648033060858, 0.026543244875586156, -0.25168517943428675, -0.4166122883239299, -0.5797948626493596, -1.0093496298906917, -1.5609683130236838, -1.4823160638750439, -1.049609942622968, -0.9611503168802052, -0.5256870915402883, 0.07931827084182243, 0.07304564260016295, -0.07446389634516255, 0.5108491416670715, 0.7458257089316029, 0.12164189531845435, -0.17934731519992467, -0.48266386293394054, -0.5949469119803875, -0.5118171973882261, 0.025441993017611488, 0.12530188339097567, 0.10223475364872403, 0.0817100597780094, -0.0013980952051638482, 5.5482092496966e-05, 7.45692124576754e-05, 0.033010204902113593, -0.2762294512015354, -0.6977703674963076, -0.5349834745606991, -0.831769861463122, -1.006203080088821, -0.8853918741205019, -0.6589687170088342, -0.16849689436565332, 0.009991895407560345, -0.5932005704836604, -0.26003269177141053, 0.3779934840804633, 0.06242220283607523, 0.34999721791162114, 0.7992929114612485, 0.1167807097470683, 0.14605531860497184, -0.012610882270189671, -0.08572056097392286, -0.1549777640176748, 0.1795275434927611, 0.21811570818657988, 0.14309961726378975, 0.008999648139272927, -0.00045421212603098237, 2.726195069218343e-06, -0.023074866445289974, -0.05780488955280562, -0.2930236577979457, -0.7813517073841452, -0.37411283514306387, -0.4998368479275963, -0.42767264983917097, -0.618253661579142, -0.15120171402746205, 0.186103669278064, -0.4907502732925004, -0.7577844981571866, -0.4495689009058905, -0.5125754352412804, -0.15507715288607377, 0.029141403312024545, 0.288953286134867, 0.5378678912980717, 0.44213821911031476, 0.22578596944026866, -0.31421653725007465, -0.2929989708827182, 0.07666062684003566, 0.03510179411868789, 0.0976039482266265, -2.817267671589757e-05, 2.0366228652834064e-05, -5.820555040961157e-05, -0.013211908879585321, -0.07991058776286773, -0.24644406352102324, -0.5676633300009644, -0.5823631915630594, 0.11550859587656846, 0.45033225870577354, 0.10226372645373265, 0.07397480336892111, 0.12493375847814363, 0.02144633565703976, -0.0660978364355079, -0.554869612597948, -0.6288149028448349, -0.5127604713882562, -0.5005401183946456, -0.1364118244635099, 0.2977015784640202, -0.006770764298210391, 0.1633483661943914, 0.10275660430896458, 0.1609117866358935, 0.2501988436715718, 0.05816552967029905, 0.12106584557953237, 0.0012063350612907724, 4.847337409922813e-09, -0.00011059835513071616, -0.04057845450993127, -0.06445098732878328, -0.12193152727273134, -0.4983963225101751, -0.8384859627785154, -0.19137839973246393, 0.4170638035215708, 0.5827065089558214, 0.23359141532478928, -0.309971288124741, 0.3480412874890227, 0.07677477304300713, -0.19293891248709114, -0.43705135165912756, -0.567306814562745, -0.05933434866448687, 0.36956173307172213, 0.22046433533898702, -0.05936040514857719, 0.4844396870074426, 0.5430701337026402, 0.4609707809861376, 0.33679326123534253, 0.19532246783536036, 0.08515389816694563, 0.01436034233219056, 0.00011921818209852896, -1.7926710435867637e-05, -0.012836617839459654, 0.01995741972006376, 0.055380655025600856, -0.3753917590771055, -0.771939522476376, -0.37198817038029197, -0.1820571476338226, -0.35628508754792043, -0.4296085735407913, -0.44157546931410413, -0.3261045417406718, -0.41231903556675903, -0.4366862562116303, -0.5642325846078585, -0.18623445865596558, -0.0419627133613415, 0.06655267842775438, 0.31019509534932116, 0.15057571525166716, 0.815756643557844, 0.6144166387952824, 0.3473267665454125, 0.2923062535205923, 0.1480291283704269, 0.055167311291856626, 0.030199222312479977, -1.625582384782447e-07, -0.004669597535435004, 0.024118249150348683, -0.016050745581616472, 0.19160622505228334, -0.09698109834582175, -0.5697057665647934, -0.48797831945571496, -0.4185444903009593, -0.6361858977946957, -0.6473333608518652, -0.1803044226787245, -0.3506005005983556, -0.4777437021956547, -0.6793068922202353, -0.7371246219461279, -0.3241742802353671, -0.3947072480100641, -0.00591762036618621, 0.28693532013163303, 0.22593874886246584, 0.5657225847731525, 0.3923989815336284, 0.09308068651646544, 0.09059104584687033, 0.08542346574228968, 0.009363269830676148, 2.340441895715873e-06, 1.0013379863747803e-08, -0.01084592442354845, -0.007184708958911803, 0.037417322626302325, 0.20536185292710507, -0.009018701064564904, -0.1859350455526065, -0.38877253997813255, -0.41711634976619494, -0.5287096756469837, -0.47641795891846794, -0.22634304908381003, 0.031164097599248444, 0.0023061595270208487, -0.3776637721580549, -0.6652406725327535, -0.6028020839267216, -0.8392759539889011, -0.13596302887965966, 0.06758367108962297, 0.012841969731153162, 0.038614586764467114, 0.04736662350870131, -0.031637610358062083, 0.0797210731284518, 0.032398525366303534, 0.0033347124377109275, -1.2529551049404877e-06, -2.3037936929845155e-08, 0.0006742488451917658, -0.007747686556561146, 0.04665024403915766, 0.08025733347501514, -0.05421435407564425, -0.2733358911501259, -0.341527272071566, -0.45271879325803, -0.5908484759420993, -0.1503172637045158, -0.37375858483387453, -0.07858993705013602, -0.31362372282764317, -0.30846345265632913, -0.5689349032270045, -0.43867613462185445, -0.6918945711196735, -0.13611359906412862, -0.17765074720788185, -0.23993461938191915, -0.2640195441460652, -0.12273124546762873, 0.06554611590402325, 0.08054365101211998, 0.03963062600731719, -0.0013123471225552864, 1.6409032593671182e-09, -6.496794289062565e-08, 3.461964482676348e-05, -0.0020185124264659963, 0.04143595956624627, 0.13106766218952953, 0.13221396438926097, -0.1361853881820004, -0.34038852461303426, -0.6308809940216299, -0.4125581033594575, -0.27908403776067675, -0.6305742616392611, -0.47508945396100966, -0.5642788796396393, -0.6716754765808713, -0.7041950538822259, -0.47428603147018955, -0.5853869473290162, -0.27345662151889566, -0.43722740791537545, -0.5646512160659527, -0.45584079748445205, -0.15346478757127546, 0.16582667357292147, 0.11248066688486073, 0.010609893226407412, 0.007205192641143719, -6.069044550351405e-09, -2.2481082026786528e-08, -9.726913586438239e-10, -5.738014878060367e-05, 0.0036229167278065723, 0.14194460686456972, 0.2659665319265598, 0.32747222323844444, -0.052130537641223114, -0.533224114572172, -0.46194835975059767, -0.6103289791717539, -0.8549369813518709, -0.7292424337369151, -0.6002686360746928, -0.8855731042800807, -0.7093835816761672, -0.4054563103682467, -0.07637194900817094, -0.16434323047335325, -0.4358496446801192, -0.578922665407925, -0.4865289892275905, -0.08553631849606234, 0.06900900365402679, 0.16355082287315112, -0.004690747563843387, -0.00045793622133776635, 2.129707144107805e-09, -1.2859898208446918e-08, -9.39744794811145e-09, 0.001235355670919142, 0.015449440790433842, 0.16721085489138204, 0.44109147843994706, 0.48623131294241195, 0.11017477048224793, -0.1375527189950279, -0.24509990322860892, -0.003435158503633463, -0.025701151648340328, -0.03714158395897494, 0.07289348804275833, -0.03705047897640874, 0.05889943552700693, 0.26217402365286296, 0.39376099934687236, 0.19901328677372676, -0.27764372848044455, -0.25067829722847157, -0.20854546899044626, 0.01581837538641064, 0.00491109737149058, 0.019726280772143875, -0.007317357645809449, -3.0534080986621966e-05, 1.4610097271231437e-09, 1.1651555462223602e-09, -2.396192881702568e-09, 2.020110340796664e-05, 0.006646334671467496, 0.18165476225033536, 0.327230684822556, 0.5218310058513643, 0.45960604733063976, 0.5499071783800094, 0.5413286965572581, 0.5493456846575591, 0.827243527307156, 1.2088651236306673, 0.9305174298895939, 0.9454628750017007, 0.8480759505233193, 0.8239514098753138, 0.919192647043715, 0.6692875314353481, 0.2702666182001175, 0.15998921692193208, 0.15702657103991877, 0.06507961843240423, -0.011587069873855613, 0.004775465413910936, 0.002187064262526994, -3.6905237612037684e-05, -6.660992319060905e-09, -1.0962597710031976e-08, 7.3451008515124845e-09, -9.249559755796718e-09, 0.0011095347371350324, 0.01719737067182104, 0.045013250101738365, 0.08282097794588837, 0.18749118845608514, 0.24599081118848554, 0.29862800259859096, 0.45242300701783783, 0.42194182746358, 0.6618529936719907, 0.6229638371944255, 0.6705606989196083, 0.4682963400315449, 0.34941612226203234, 0.37744265496497287, 0.39627409201587427, 0.1278882310829007, 0.04994816070342143, 0.05013525252550223, 0.02804564035143274, 0.004163421511692869, -1.1150578672772069e-05, 0.00028750618315666, -1.0308071293842017e-08, 6.0863684797509345e-09, -8.538483620814826e-10, 2.132043238803028e-08, 7.198120185919169e-09, 5.921025769097693e-09, 1.5237302407848356e-05, 0.00011911821322113875, 0.0013773168338264284, 0.007311820163628789, 0.007974572255939526, 0.004662367577157663, 0.01242276571053648, 0.015273973730849, 0.047356088995058214, 0.022078906289972184, 0.04205173984963865, 0.005551189306401029, 0.024570307485972283, 0.07751662523810524, 0.06986281192925922, 0.006012623421899386, -0.00021772296486816808, 0.00862892976826723, 0.017683249465080483, 0.00340034195206782, 9.237215944605309e-09, -5.632483241949019e-10, 1.0845507706224301e-08, 1.1231446500670316e-08], [4.226476367191028e-09, 7.9867240381258e-09, 4.677335401579854e-09, -5.7246872019730586e-09, -6.890537814669419e-09, 1.259844551591945e-08, -1.0092119250209574e-08, 5.060588570225052e-09, -7.930047161856386e-10, -1.5175206125162762e-09, 2.6547751392360018e-08, -7.349500467444701e-09, 0.000710045963207262, 0.0015508093961076345, -4.417369658740154e-06, -1.8440259855169057e-07, -5.042598998297697e-09, 5.101768896068183e-09, 4.249520916216138e-09, 1.4619028606760121e-08, -6.5617311205797985e-09, -1.366136734305655e-08, -6.1566235370239616e-09, -6.827811168358827e-09, -9.876795950537519e-09, 1.3222418766927237e-08, 1.4164508951828373e-08, 1.2639244098051728e-08, 1.885269759243081e-09, -9.312862234526584e-09, -5.453992511315184e-09, 9.425581994687372e-09, -5.75147925416038e-07, -1.7415201174497446e-06, 0.0004685585116177867, 0.003635529363849774, 0.02967716990585035, 0.0054888315012548835, 0.014906983429352613, 0.02591812695301356, 0.0069107596836198845, 0.0038938765184856443, 0.0029446450136770223, 0.00600261876407366, 0.009382615352044781, 0.005714824826298861, 0.0012394116114027402, 0.0026648697784826363, 0.00170113068783651, 7.639629128340242e-05, 1.8255276384123823e-05, -1.0895573423587054e-05, 1.2795587660193467e-09, -1.5084878861671126e-09, -4.760909582612362e-09, -1.694815997456705e-08, -6.34772819124392e-09, 2.3396959426524765e-08, 7.190657587211415e-06, 8.473065017237474e-05, 2.888831578520507e-05, 4.291509765520378e-05, 0.011543429412505381, 0.04227618201891119, 0.0847573856069475, 0.05470991042320903, 0.09053638201324743, 0.06480759631076888, 0.06463446636119004, 0.01639234230885884, 0.012046118835821445, 0.04261118208950662, 0.038178757354108306, 0.06040559351634844, 0.028948183253542405, 0.02870037599047458, 0.02008047672667111, 0.028388042325487674, 0.027377195473551132, 0.010407861121049312, 4.492320134248709e-05, 4.256468467063671e-06, -1.2112081895831909e-08, -8.201335909214289e-09, 3.6977852870491744e-09, 7.747401430465836e-10, 1.586578716858653e-05, 0.0003430231550013806, 0.0025395871347879025, -0.01894342160814283, 0.019659718933923192, 0.005210564845162642, -0.044649236415762426, 0.03487098859053998, 0.2261383170359127, 0.22375668758151707, 0.15175402250504827, 0.45772447026456314, 0.2843359457671803, 0.21778696453579166, 0.15225760108106992, 0.10403903789312731, 0.04549597230858228, 0.08445717517437921, -0.02099308062519624, -0.04239460172868546, -0.009443598910304418, 0.02209234571474633, 0.005189228826813103, 8.297250649628464e-06, -1.9509247462539684e-06, -8.198810142911014e-09, 3.048993620894351e-09, 3.782715671148976e-09, -6.208383594148923e-05, 0.00012300270601289874, 0.012966167415523614, -0.04782903912831533, -0.029024282897617968, 0.025669824270114123, -0.10977731834671013, -0.06173320580960908, 0.07825118985118738, 0.10393146802313462, 0.24783992363602167, 0.3350226497100099, 0.24840334852781146, 0.26987467802631504, 0.1598848083832408, 0.20931346422007815, 0.1662135224458325, -0.004350691765986567, -0.16899545636912014, -0.17386929860097594, 0.03222915705897255, 0.03718845115675889, 0.0014200977962178357, -0.0007713776683645577, 0.00010646783812887988, -1.1189478012396545e-06, 7.836929131606138e-09, -1.2463752374409676e-08, -4.699790946212807e-05, -0.0005116176996642026, 0.03160725932785549, -0.15700552595413017, -0.07593362888645207, -0.21232042724598105, -0.2760313138871415, -0.06451182513934468, 0.32119389840540125, 0.22094531087726973, 0.15385423270975482, 0.35355931338572166, 0.14341281065860934, 0.008076860859089152, -0.15055625107381854, 0.15951133855073754, 0.06945857220517462, -0.09396856444474165, -0.41380561697586155, -0.4204403834689503, -0.19365202806114462, -0.01036751372590352, 0.002480668896719422, 0.0006437079771355622, 0.002030470959515636, 1.1836791483682344e-07, 3.2738865634463998e-09, 4.559183314488411e-09, -0.0030495642420620317, -0.05473707556211105, -0.0533879472081592, -0.09252023369282274, -0.19666968811125327, -0.11761667363155559, 0.14122196960719183, 0.10510005348121794, 0.24767441846068164, 0.23217648606116703, 0.08619266558508629, 0.4409969854648336, 0.21213648532584622, -0.07164411241837115, -0.5495544956983014, -0.7019789577863421, -0.21198895683210575, -0.07542068440480042, -0.340413472386547, -0.49308998730171155, -0.4443897657019288, -0.11400023344753307, -0.013741448470856187, -0.0008060672886642833, 0.008587899803521738, 0.00033425870968263697, -1.1540551791155218e-07, 0.0005016400077291234, -0.031360309121410586, -0.15624961254533384, -0.22978408842224238, -0.20382663979950894, -0.08989056379090224, 0.1083170502569994, 0.13857981697707789, 0.3774892827826187, 0.39700471121849074, 0.3585337877722795, 0.43413767291772704, -0.1303393459212648, -0.43241939572978866, -0.41440746805556294, -0.5468077457491801, -0.9246680490638609, -0.6906241485707255, -0.2346396691343302, -0.3806391993134108, -0.4757886961625647, -0.41000739455324897, -0.16458220750034736, -0.013356529255098748, -0.006618866568828697, 0.0033809616651255875, 0.00021797562878572517, -4.562772560044812e-07, 0.0008022372833412719, -0.03275835705649023, -0.10428800196548309, -0.28738184369211417, -0.09801604097591728, 0.0653864312804529, 0.1171151390613015, 0.1243729611934344, 0.2867912855698594, 0.11988901662536686, -0.0031093778311181647, -0.055190115783415365, -0.821227460856892, -0.9924538017899394, -0.6075861933039498, -0.6056771340723757, -0.5877255974687075, -0.7201942134481207, -0.4843338821190525, -0.16248692858549507, -0.2777994685459981, -0.16687630919736515, -0.057767306884928586, 0.009684893876303485, -0.006248735251584321, -0.002644613387260731, -0.0001659794523358433, -8.811619291924344e-06, -0.0009826242074251256, -0.00368926832402227, -0.03230802214916066, -0.11185389778066862, 0.09583544551838355, 0.4853036719666545, 0.18948108460501412, 0.26937744751691756, 0.6236935664025071, 0.8806758522211342, 0.2168476721225222, -0.6137323647820282, -1.2259698198923579, -0.6356861255803707, -0.3623547301527893, -0.04900572810180921, -0.3048315669026846, -0.2857947732172265, -0.2809906095766795, 0.06074475179570993, -0.12890280435840862, -0.13671850238482594, 0.12624418590450553, 0.08839861674501355, 0.012582842976355348, -0.0246244888990049, -0.0030478665895811875, -2.101010764947985e-05, -0.0007144174059165694, -0.001979029716481392, 0.09981407974440178, 0.026506964291584625, 0.5021279376533566, 0.5588100447482354, 0.42011549152763533, 0.5697574553846658, 1.1601013052328384, 1.3903614857543396, -0.01882181148847797, -0.998978980189052, -1.20468235649236, -0.4910569332387773, -0.07029339169063134, 0.1416281367616249, 0.20418381498915758, -0.07525942947923026, -0.181939938054415, -0.016451629480320782, 0.030810993336447517, 0.21611519033539234, 0.41990661074096464, 0.2522330755206328, -0.009735350268752564, -0.07693792904778815, -0.007563273530120765, -4.2504830385172744e-06, 0.0007028074268135115, 0.013624682867693097, 0.08633973612748673, 0.36437854287710586, 0.47524467192710307, 0.5252668255763887, 0.4722194358918875, 0.6135003882937583, 1.2227127862963219, 0.9711694503702765, -0.3725818222576261, -1.194746942911505, -0.8958636299893604, -0.1835306987887532, 0.3345805980954659, 0.7359702662132578, 0.7056296325321227, 0.33787974293063056, 0.06947132319421864, 0.2555160498123058, 0.32123994339557055, 0.6069955059215679, 0.646397904573051, 0.32383451722698364, -0.0665396352052417, -0.08256617358388071, 5.510359636719421e-06, -7.808718117660411e-06, 0.008490242317799301, 0.01008282796204245, 0.12819798129152046, 0.6008179593468598, 0.6189573409070074, 0.6645177693490998, 0.466434337593398, 0.5379496060706134, 1.0070517586242826, 0.6082208645114011, -0.9393246941867386, -1.2588048239250302, -0.5958586698489138, -0.19589740676671727, 0.34338554094604784, 0.584472578256053, 0.33012848163565534, 0.28689478403796886, 0.2870817846575292, 0.29862353085405385, 0.5012251416644714, 0.8619068606644171, 0.912436767102057, 0.27098907856865073, -0.05323128360036919, -0.007623362667392478, -0.007965801241415592, 9.838974350761826e-09, 0.011588980259693555, 0.012781172786337286, 0.17345783269582843, 0.6085000254336654, 0.7366886881345566, 0.7645204806794874, 0.41951595543805204, 0.4356179334472003, 0.29646981622891105, -0.010176073314641432, -1.0406024289498592, -1.2973467259054543, -0.679821249016933, -0.09373110214620949, 0.1456584336499145, 0.1725519629308599, 0.14481104485900773, 0.2222599473171573, 0.2425910181268979, -0.040268886798262, 0.5071150958352629, 0.9313688947219906, 0.8542313041370235, 0.15207218194098948, 0.008076517034654548, -0.05152274424613398, -0.07212756522284737, 1.5594088419412216e-06, 0.005041668569037793, 0.011850099778000356, 0.15676248305111185, 0.47808391251247356, 0.6949297482161637, 0.6548686449693732, 0.20763088652822406, 0.43578566799875273, 0.12252217309613486, -0.014264439769502892, -0.7786558429080243, -0.9493282652551889, -0.5099167892150344, -0.5187684641463561, -0.41695433421207523, -0.39257238253210175, 0.2881622108275354, 0.4477256779509786, 0.3062305458678218, 0.007542072204961191, 0.05860546737837248, 0.6412371740007485, 0.5342195410879479, -0.01733740860706353, -0.06728163082372356, -0.02660851388028864, -0.0018487306050063237, 5.93974393831209e-07, 0.0006290805364294492, 0.007492830611540787, 0.017645284014022784, 0.25522757007321967, 0.6334667805212317, 0.33205765881926436, 0.22200458380549454, 0.3959037966875114, 0.21672988381093233, -0.1729707722559737, -0.6510792446375528, -0.673856233738873, -0.413739266288063, -0.7160803328063695, -0.736487048942782, -0.6888842202542147, 0.00487460790631198, 0.09093238528359827, 0.2241970690110696, 0.12632636713567374, 0.04708153078078996, 0.3851019175879722, 0.30026035053648775, -0.1984844100485369, -0.09915262378108336, 0.037376309578666056, -0.0008032162136741188, 6.031502597971511e-07, 0.0001826607578504319, 0.003596265018090627, 0.0044579788897658595, 0.1806501381900031, 0.5192906787971339, 0.012719846310985883, 0.15943631666410552, 0.4722118196571038, 0.3487492933454579, -0.017113076134074857, -0.34992857035998787, -0.3621294572384206, -0.3173614855054439, -0.39096229020380885, -0.7449830059353116, -0.8843680636356992, -0.6066155750342125, -0.22999510030342227, -0.030358645101585445, 0.4487395162025132, 0.35356431139770855, -0.06453626430396718, -0.11272147728502231, -0.19057568702304, -0.10993270732753822, 0.00011731762137405354, -4.7178435877840557e-05, 1.1414786706982307e-08, 5.575828041440209e-05, 0.002879308011814185, -0.003938566020701426, -0.009648654900786691, 0.06481060800627134, -0.2073300405483121, -0.16231571914655057, 0.11841015749364012, 0.1665881823778551, 0.016785496779559265, -0.35415182079000723, -0.5826736293601488, -0.3043829961857893, -0.06453542096905285, -0.7692192853445842, -0.8611986111330301, -0.4917255727317246, 0.2720575484876978, 0.3236271127205139, 0.7026105142857534, 0.5460906746694499, -0.17831287165678494, -0.44720464569465673, -0.20723329664667398, -0.15604989913936926, -0.02362824602989395, -0.04183409690373786, 2.051696412698333e-08, -2.8507092122229874e-06, 0.0011542555756597587, 0.00425997146843912, -0.15014773398278145, -0.5568264232525738, -0.5084248481240505, -0.24610175375794416, -0.09468841851539686, 0.13899760042227574, 0.4073894077768182, 0.08861354967551628, -0.11615336138006707, -0.028501984209937842, -0.1107721581289156, -0.6623474197257082, -0.34670613383341753, 0.17781701064429142, 0.6945204888216377, 0.35888763494654957, 0.6007626377184857, 0.030095058600119438, -0.5076450126909071, -0.6990008421362606, -0.4388626934509346, -0.18358402217741274, -0.15277360573545132, -0.10112151018424012, -8.823836926451044e-10, -0.00010470186019762232, -0.011448975775462304, 0.0549763202253564, -0.05010163401500762, -0.4447366750880591, -0.5456309352354837, -0.38188097096643125, -0.2319060085601122, -0.006598393888407475, 0.2704226853689224, 0.1336740370892644, -0.36670804586532163, -0.5540141174249297, -0.43302532097488644, -0.781015532057995, -0.42293672366705376, 0.2534612263333482, 0.38207309878268503, 0.018325393091902772, -0.11874538155583567, -0.29227942819148883, -0.5561888922267502, -0.6048499416255972, -0.2160039678666153, -0.10410601786545763, -0.057418188464343045, -0.0074036505608165186, 1.4317862610202633e-08, -0.00022780655617214316, 0.006593876390365787, -0.017520070072487362, -0.027627840366970077, -0.19868171473987203, -0.4148024654667422, -0.6168514656763997, -0.3303692035241442, -0.009713994131636872, 0.12868978477526236, -0.2757899367014635, -0.2665470870744735, -0.215944346232977, -0.08016087416940224, -0.047774602870258066, 0.28285476233563783, 0.491614479449777, 0.3284152611228723, 0.035429596617099164, 0.0018279612592307735, -0.22323981735584084, -0.4041057404143936, -0.35066185383652293, -0.09355779727903912, -0.01488675557827257, -0.029664629071530633, -2.4116941342878965e-08, -8.319550200349188e-09, -0.00028276779669448194, -0.0013565459459939859, -0.06103105877228013, -0.11641646582776968, -0.023262916418769524, -0.1694569862655767, -0.19068676307631793, -0.04368343318586712, -0.10426445114629823, -0.09913368368420884, -0.09267985463579072, -0.3419684583876612, -0.16087233763164535, -0.03725810606282113, 0.01779704718139592, 0.29523097207150284, 0.2561913908651662, 0.2504392023075825, 0.08086230604480167, 0.15612780029640874, -0.10741296072216353, -0.13739689600518679, -0.08565052772282951, -0.03896895360758637, -0.01093507883382953, -0.003055240519546743, 7.199828622228354e-07, -1.9985530769639603e-08, -5.1067346316363146e-06, 2.3799371363460088e-05, -0.024419087135617273, -0.10598334215026176, -0.07662986345145892, -0.34929530198987574, -0.44354474907756886, -0.369443035164266, -0.25261579070475687, -0.33730678940416325, -0.15430374722942575, -0.7474912328543507, -0.6568593300549428, -0.33552266154572297, -0.29743553037936804, 0.014338599270520131, 0.4063229817787464, 0.5533750695318446, 0.24309697895794483, 0.060793637332212, -0.054287931889611896, -0.09537250448565052, -0.13100665740336637, -0.08096245146809994, -0.022304433811641645, -0.0002498697679580737, 1.3238507732272877e-06, 1.132681235911071e-09, 1.4620576634887012e-09, -0.00016233100952512693, -0.0005505029532884337, -0.025862468422325306, 0.002641436180382405, -0.15159784922024266, -0.42045619748906593, -0.5483176726418881, -0.41040391127288184, -0.2858512519249211, -0.4293721326969132, -0.5249543974650148, -0.4827051026936769, -0.14532782442639197, 0.05987668993531294, 0.4242362397119079, 0.6044793492160181, 0.6793225484389398, 0.6559619629463911, 0.2854535714182704, 0.051148168214618914, -0.028745446381969755, -0.01823668478411539, -0.030202026846205612, -0.024823576247155858, -2.263303578270789e-05, 1.9462968384715305e-09, -2.3395396719787074e-09, 8.395238259480205e-09, 0.0012050037803807037, -0.0011662392239723122, -0.0063353277421661, -0.013229909842953736, -0.016865304578861238, -0.10042296945069243, -0.21272924276651414, -0.28275780391925265, -0.2594463632140699, -0.19931658050034745, -0.28339686178046275, -0.4596172334330046, -0.48557864881441276, -0.21224146694282722, 0.16043156231220151, 0.32620083458606625, 0.642920637448922, 0.7141033464312125, 0.5346979397266315, 0.2680324983803951, 0.14623098064763648, 0.07200982320780287, -0.05173677918775909, -0.016102886190370348, -0.0011474074801019972, 3.8454798416953265e-09, -4.817059817127302e-09, 4.964227136887232e-09, 0.0003521572314959271, 7.901284373459204e-05, -0.004422169297715725, -0.002875513244187742, -0.0028227600110063817, -0.011181161949288553, -0.009413081619632323, -0.08740081024046865, -0.19027102902606777, -0.24072037261486598, -0.3216964858648881, -0.2876729563418278, -0.2890519201068482, -0.17349314092725004, 0.12917570795333788, 0.16811721485144496, 0.3100043303472525, 0.431445370422069, 0.26550318473004136, 0.21181854212473636, 0.12992583888584072, 0.03563868271340619, 0.003700898826174426, -0.0005114571462472784, -0.0012176401525094114, 1.2073730328657566e-08, -4.590902535814998e-09, -1.1920868735761575e-08, -1.6775116502800918e-08, 1.1333602476913854e-08, -0.0002086526123140044, 0.001833238162308688, 0.0009517123667172364, -0.0022763940841849712, 0.012173493421981815, 0.010297080574613747, -0.023864506528444487, -0.04293029158877376, 0.021288229587938846, 0.07215290080194885, 0.06502909066295241, 0.10886358021941815, 0.12077277913072929, 0.0803907448023772, 0.12169786766675689, 0.11458550588988861, 0.10086065780551369, 0.07853970150395237, 0.025661040955129718, -8.438897965510066e-05, -9.07444187683271e-07, 1.804439278843336e-08, -1.0939056081571168e-08, -1.0583867333931097e-08, -3.215020988473735e-08, 1.8668170209478914e-09, 2.3123187453165996e-08, -5.572663759233449e-09, -3.66425815077378e-09, 2.449865743205155e-07, 6.012695574115374e-05, 0.000696465449639758, 0.0011666057953666406, 0.00031233675362202966, -6.696740585843528e-05, -9.406227676014446e-05, -4.8683576201836876e-05, 0.0035765331393454664, 0.008432372032929115, 0.016071884344426548, 0.021249097498144093, 0.010417305293757183, 0.015210767703145079, 0.019257236990228885, 0.022108481352897936, 0.01244151270770702, 0.031783339367250044, 1.7745217806638807e-05, -7.27682919983161e-09, -9.785824998464119e-09, -1.963839650923227e-09, -2.239275490826684e-09], [-5.5451980216053244e-09, -6.094385673007819e-09, -6.721843971005112e-09, 2.7460599649513854e-09, -1.1164360092336139e-08, 1.8039612912861025e-10, -1.8961507107453588e-09, -1.3499392630533122e-09, -1.5385181913297383e-08, -1.2469170422277491e-08, 1.03683080493192e-10, 3.2874683531456383e-09, 2.6920605363539336e-06, 5.895180687955617e-05, 5.9049310764818606e-05, 2.4481126131464594e-06, -2.524958303479979e-09, -5.602580832083746e-09, -7.847665311124993e-09, 9.064681532077152e-09, -3.2443214070026024e-09, 2.208138226137777e-09, -9.080439900763501e-09, 1.3962640078200282e-08, 4.568702665130505e-09, -5.242927002594895e-09, 5.61385714083722e-09, -8.334082453228044e-09, 3.835246510689889e-09, -6.297286396021235e-09, -3.8812618203791686e-09, 5.596482937728344e-09, -8.001116272095475e-07, -2.2470229542415732e-06, -0.0001466372269090827, -0.0002315819303278759, -0.00022745937845881412, -0.001215780842471, -0.004658652427117318, -0.007305180822975959, -0.0045063720994018815, -0.003791391452322173, -0.003778984495678224, -0.017096103087670945, 0.023285044023152866, 0.003924890536706929, -0.0011882555130410415, -0.0024939517513554517, -0.0013401327332603684, -1.8933268719175495e-05, -4.096515602875294e-05, -5.6955045477745795e-05, -5.34732509267083e-10, -2.4352547148723528e-08, -1.080574146486068e-08, 1.7784986713192516e-08, 9.33606238146562e-09, 3.6258266991944926e-09, -8.29187376402228e-09, 0.0025487447679482943, 0.0008712315199469582, -2.2697962556534126e-06, -0.0006001312651215148, -0.004886902007286211, 0.009231107192092617, 0.031231664491421555, 0.05135583083656722, 0.011638937241638912, -0.18298122117659432, -0.03122310479676398, -0.029384406135923205, -0.101267426963138, -0.09916819583236418, -0.11933154287538077, -0.10631997010292961, -0.03135949963903656, 0.0015216065570133163, 0.0026018507877591007, -0.0018044085909624565, 0.00046761232595993527, 0.012983661765812978, 0.00848644177470598, 2.4088679593839267e-08, 1.3274760923513649e-08, -2.116121903672708e-08, 2.5101354514547572e-08, 2.209957110240685e-06, 0.004500664115834778, 0.0014463059956209517, -0.0010778873915163747, 0.0009053832505547404, 0.038379640696914165, 0.10965155935019442, 0.17038064071563616, 0.178943329990258, 0.10861765845290904, -0.029237594216903213, 0.02901536121666465, -0.038556865632689376, -0.30130171797330896, -0.3459270674136315, -0.2373391899540843, -0.22270102163698174, -0.09021920214108411, -0.05185830973676914, 0.00817924640956907, -0.024633398485844688, -0.07687010332417953, -0.016823386161275957, 0.005870701811936115, 0.00012076815956688387, 1.3365816925914046e-08, -6.648592838609385e-09, 3.7805304744265104e-09, -1.913933070908098e-05, -0.0048282700236896466, -0.023394785035844686, -0.04204607692947658, -0.059347801420840625, 0.036157619800949246, 0.12386418483386001, 0.3489012877010521, 0.46616173710812725, 0.48679302457867424, 0.5329755702757533, 0.43179321807897625, 0.17420869684912932, -0.2734246273948136, -0.10156168444182204, 0.031093022960054215, 0.03058973001266363, 0.18704910132265035, -0.1636835539498479, -0.1370961248962279, -0.3018597644510253, -0.16578697009901663, -0.03243371847937738, 0.0012157653946738504, 0.0027934888473007133, 0.005348014805262869, -1.523215439642224e-08, 2.907223667146607e-08, 0.0035825251798474057, -0.006820673584932966, -0.027098677078537248, -0.07167592277571758, -0.013196623596655946, 0.10868067559749042, 0.3081429527639674, 0.3409597863153816, 0.6079815628240682, 0.5752911122358556, 0.7066388564240158, 0.3142367147638965, 0.38164685828840833, 0.3961720924323712, 0.5545454537679072, 0.6492736876800675, 0.47854892553164163, 0.15916463463329758, -0.10810264111864093, 0.05952846244011517, -0.07663194258675914, -0.04235239803141325, -0.03912504287327796, -0.0057601150977014326, 0.01526441166637962, 0.009590240231619071, 9.400187218101051e-09, -5.518373439178407e-08, -0.028867986895833864, -0.09689925574307837, -0.13441458403369846, 0.02891459860569704, 0.29130752360829176, 0.5625777423010115, 0.2664548235558611, 0.40019520004961767, 0.3215318158041042, 0.27971144362993267, 0.3962388892978307, 0.5237277052690866, 0.9085653800488078, 0.4658260664411881, 0.25425893186851045, 0.1857284342967445, 0.058107649472450916, -0.13658662899206325, -0.4420288739337858, -0.2953677964800523, -0.1250933638731312, -0.06905901919522947, -0.0985545538017393, -0.042794161515448556, -0.0018668536926968171, 0.0023700716210193666, -1.29416054149072e-08, -0.0005095723678460519, -0.046764048116139566, -0.0484418982988357, -0.12209969550283686, 0.14492545734604032, 0.3585637817901211, 0.14931319864956683, 0.028400324430490637, -0.015352167383934367, 0.10969214979527946, 0.7155873413873461, 0.7388310045390604, 1.037567530425109, 0.8246061581473916, 0.33388977341559867, -0.2215051226241961, -0.5278074929500226, -0.5004321055708582, -0.16090152173240002, -0.2678724954992292, -0.12797747182130406, 0.009034015225259037, -0.19337518161994324, -0.11869601696526269, -0.04614370956441629, -0.006769090182302744, -0.0020603844129246894, -6.260382432799884e-09, -0.0017404867879184944, -0.021754783041045667, -0.0014347033050432932, -0.07056988844959133, 0.06950581561135759, -0.06262066986389746, -0.5440962572015737, -0.20275210621932527, -0.149586138881601, 0.3090324220937199, 0.3995893249102001, 0.6464028663373735, 0.8610572579711817, 0.9877386281167233, 0.20965553379789595, -0.1874350002996431, -0.47658067732961773, -0.2596807190875219, -0.06405202800489401, 0.00693330108251735, -0.10565506286472173, -0.1618776842524494, -0.07061789143882388, -0.14852815998224583, -0.0924017883965942, -0.00385189951995988, -0.002821322280777596, -2.3145415085800887e-06, -0.0007666559701236616, -0.01706927088555379, -0.12327655523437599, -0.2507108450877482, -0.13523281406398047, -0.1438536850327308, -0.10543802551451112, -0.11314295904652952, 0.08513547934676591, 0.1974110134356267, 0.3250573337411708, 0.3315913621189428, 0.4597990022088379, -0.008940771877904681, -0.28603948866598317, -0.1456793164586072, -0.06969864435524165, 0.14039978497536737, -0.13884412357464276, -0.1439030719108712, -0.3982194691102765, -0.26582314287885767, -0.09828730946503998, -0.1372041645312914, -0.033973075547376476, -0.002205148326797184, 0.0005700339034776076, -5.594954022397232e-06, -6.690867333362851e-05, -0.03560570571390853, -0.1924542081002327, -0.23868386449870493, 0.10868347850129248, 0.13699277132394436, 0.15362334282942652, 0.3791961926914506, 0.4559986485313998, -0.1513641468160476, -0.5812669822874791, -0.553597619211171, -0.3645663347559587, -0.6047042540159011, -0.437481531042092, -0.028698190680450993, 0.1302745683437483, 0.23691532110352548, -0.2984129667509129, -0.7473986181146165, -0.6085010208321725, -0.5498409373811136, -0.3149064423748151, -0.15076533962069513, -0.05301375575990978, 0.00012290937407005045, 0.0010272242922364594, -2.7712360211104168e-05, -0.00023472555350319816, -0.013333768774565893, -0.13387218190300776, -0.02709288067401849, 0.339289298033538, 0.3327277631632649, 0.11083265143452894, 0.23751990538548157, 0.4423731861727326, -0.3668642874390585, -0.7810768538242087, -0.9505543013016663, -1.3280625274509141, -1.1022367281083465, -0.5563710479006418, -0.048714014522881224, -0.534977319280556, -0.4166992101085639, -0.6380357460059399, -0.640948185319308, -0.29923103355705716, -0.23676189045040363, -0.19578583267208388, -0.12248208013661152, -0.05588283484281579, -0.0026248051989344054, 7.161650054765401e-05, -4.700336736416611e-05, -0.00022074368550861046, -0.002297673237332794, -0.017543103831080223, 0.0633232319375669, 0.14607277137137442, -0.06016831547727614, -0.09425018845706278, -0.04602369907585156, 0.038432228201086945, -0.8442716225028767, -1.6083597256183129, -1.806940161207422, -1.798145416282134, -1.2823315492545406, -1.1785338260706497, -1.0134133789523188, -0.75298720409503, -0.5734108419194821, -0.4323721963365528, -0.5311569462551577, -0.21724119699871325, -0.06004696714009451, -0.20042256909826084, -0.11861205344970795, -0.03749562531296192, -0.004724678095907058, 0.00041272404698033954, -1.6354530526810622e-07, -6.359290268546709e-05, -0.0007746927833444322, 0.021931891069837717, 0.0729088391382152, 0.04357732383485584, -0.3522618119179326, -0.344143999955964, -0.41643094578990186, -0.3875835497663573, -0.9507034551581527, -1.7713966848664364, -1.8507116852747, -1.4521496195814192, -1.179477482905035, -1.3934308738802745, -1.216318454559607, -0.654538132923544, -0.3763625261491887, -0.42036955542772375, -0.5114706106430448, -0.20974691280949698, 0.014169064528855765, -0.1227063292516185, -0.09881179391861958, 0.11994341388522099, 0.0556711693570639, 0.004033530673090451, -1.2366206573683513e-08, -0.0019588761662039347, -0.0032710189181390696, 0.03166548671216878, 0.03410486150480732, -0.14625917041458433, -0.43082420452026665, -0.28832648693486174, -0.21359756800193536, -0.5051642113954211, -0.6993712833004885, -1.0311123059735294, -1.5531825305202576, -1.230282968379193, -1.263207157890775, -1.063928954447974, -0.7173900844444578, -0.5950580156211371, -0.22474377063378387, -0.4486983619589058, -0.33995743611920004, -0.3518874959966778, 0.029925133577806084, -0.11306063396621546, -0.08023073238255461, 0.16854436214645338, 0.11629242373296195, 0.00040957091395064086, 3.222284125766513e-09, -0.0041754715546857436, -0.014414633596438398, -0.009632128705614104, -0.06172921570359858, -0.07734598345566832, -0.33757181148443344, -0.056947660226062825, 0.2324625514998307, 0.012096031205759064, -0.13866809580716707, 0.040694630494827556, -0.5077988359469836, -0.6672065032394264, -0.8083383893759774, -0.49939196781910367, -0.24065350907061636, -0.5646754201669592, -0.8853701787086395, -0.5242912353393386, -0.33805769242407435, -0.20592865628878482, -0.21325076020313188, -0.02743164780980241, 0.12269900260192636, 0.1493544657687046, 0.10742821558733129, 0.0031804074363540945, -3.478198021095928e-08, -0.0019768505384303654, -0.05033033839123941, -0.1318905227585571, -0.3923386115974738, -0.2090438742760754, 0.013220704326989813, 0.2809566608490521, 0.6287543531242548, 0.6293893325325416, 0.7313344775133312, 0.3905156219637889, 0.1132958560926308, -0.13692861327242922, 0.06571942803111828, -0.1479210178879521, -0.2315005568310534, -0.5200778737431122, -0.4607401053784759, -0.4127747527291516, -0.278581678948046, -0.1195116857854208, -0.03857490678642655, 0.14466819399222589, 0.27668916675853555, 0.2941949845628035, 0.09107990358524413, 0.000618270405905235, -7.012048725407513e-10, -0.0006834570709066326, -0.03577665456078867, -0.23667754982520497, -0.50980747117925, -0.13579018471440882, 0.08549953556003834, 0.5425779085852236, 0.7715491982602517, 0.7662443937755474, 0.4826706116655889, 0.19720488322206298, 0.1358493698596423, 0.27834066663953844, -0.03786262494989785, -0.09437091500013388, -0.10360588412795307, -0.3364137975961417, -0.29009504037623474, -0.5723094038027836, -0.25542715115399073, 0.026202088046741904, 0.23886198219145952, 0.11008313828569954, 0.4255184693621671, 0.21822233226043763, 0.05411084879109274, 0.0012706572582902732, 1.622484526539798e-07, 5.773352891356834e-07, -0.024055009467030083, -0.2674855387987343, -0.45326875941609684, -0.1384887558981132, 0.2266513322788986, 0.7809627225227938, 0.8461580616785316, 0.7629893757266987, 0.45017733101554724, 0.05722437346467618, 0.6706822402921218, 0.6328785276505726, 0.253148234162633, -0.4043043428092864, 0.014691791876957853, -0.3173247757449162, -0.17379942561944478, 0.02492223808420622, 0.36986938256239293, 0.451755901770827, 0.5981146513316843, 0.5027484754874764, 0.7124114434468162, 0.1646748281616717, 0.015935859739551084, 0.0030727697665996192, 8.055575997726888e-07, 4.047628476061001e-06, -0.008929623400171503, -0.12154369578060946, -0.27372274132756047, -0.12391628166416692, 0.2856016762019717, 0.48408182174620973, 0.6470280169008965, 0.9074158005056593, 0.8092491255500223, 0.7866453649412669, 1.153889837015265, 0.6640145063054701, 0.18153460192851262, -0.17164409644185885, 0.1960030431945553, 0.235980722680528, -0.04806599919615803, 0.11472382911305085, 0.7335504014622282, 1.094416998938186, 0.8890140129817693, 0.7058355219332862, 0.6395883080223105, 0.16441098745416702, 0.022069674246940462, 0.0028739171810032095, -3.829357687701185e-09, 1.3478569247472214e-05, 0.00501199802286394, 0.1086906221075278, 0.1238317967119975, 0.1102028515266961, 0.36763629322374186, 0.366450134312517, 0.6460213290398128, 0.7892136044059818, 0.6220265289989633, 0.866084883275035, 0.712985950996312, 0.02392904598138228, -0.4543172360962486, -0.25031192180956346, 0.5836656087624336, 0.7676498194138403, 0.3018145443169253, 0.4588570564714965, 0.8451161122212753, 1.0091419954871876, 0.7805946456337755, 0.6641337297705538, 0.4397711136611901, 0.1476160117793755, 0.009046601815245107, -3.2143509962449798e-09, -1.2578725164325508e-07, 0.00020752678127326343, -0.02464414540125213, 0.05215339442757502, 0.24884948658125963, 0.47094351540947654, 0.20824908864748765, -0.14839420162910097, 0.2527763990650459, 0.9675408801250389, 0.4102309343206521, 0.3970426500785557, -0.153974217342385, -0.5210659645519795, -0.42434888383727065, -0.09853065201779457, 0.6579443102832984, 0.525950593491605, 0.3582835619755288, 0.5488543501379749, 0.5038949998445434, 0.7725538755900678, 0.6871762860250161, 0.5966207580023639, 0.4537737523870116, 0.13392223651772536, 0.009192090600760578, 9.721967296704148e-06, -1.4534258731813434e-07, -5.973369730569163e-08, -0.009799175716710093, -0.011487989163815295, 0.17513020617486677, 0.5245571367352007, 0.30621667929984314, -0.0772978565064334, 0.49369003978073245, 0.6649840554449795, 0.48787623090063575, 0.529020197378996, 0.09165926897814405, -0.47559699958734875, -0.5401726057506859, -0.21969183595521047, -0.017739040172585437, -0.07488856872876683, 0.5606147788583856, 0.82467746844163, 1.0745768461853078, 1.1247928348064717, 0.710099452473652, 0.5527486757815917, 0.25336743769938225, 0.0813354612469734, 0.00012122647761484346, 1.7947695740928685e-05, -6.696726858494461e-09, -5.847954264599431e-09, 0.00011851245766420277, -0.029238633480756726, -0.009100886735070224, 0.08190924220621541, 0.2767791112383027, 0.052927047571703335, 0.10196680990039327, -0.023637400065476676, 0.031090509706358016, 0.31936387262684607, 0.3703348537089128, -0.2504140772459101, -0.5158072046056893, -0.4251201331754514, -0.22217146696864612, 0.09542075105061687, 0.7325847657048206, 0.9745225509381887, 1.0932988490662612, 1.1606772780435597, 0.637682106544465, 0.2719548734810191, 0.12008244585615561, 0.05554164876473487, 9.869361415670699e-05, 1.0182642082980879e-08, -9.637692572389311e-09, 2.3047983732253936e-09, -0.030796988132682335, -0.0718756380626111, -0.1393623569967792, -0.31164994691889564, -0.32508130955271347, -0.4292427906199888, -0.296043267812868, -0.4934415527928584, -0.5381474180165464, -0.2836473583434582, -0.06998468477761445, -0.07631417051628443, 0.007710775467187842, -0.04740594058014399, 0.018232284255316304, 0.22307093833148808, 0.47165534691330835, 0.4053796568011652, 0.41362326385425824, 0.48091882116117185, 0.32667550192538297, 0.12738363735190977, 0.10223711898174305, 0.03891739766088514, 0.005582415831778981, -4.68064100169262e-09, 1.462970123514163e-08, 4.735979138358994e-09, 0.001307508565750941, -0.0020390183742759528, -0.12215871796881027, -0.11097047489422715, -0.1838149967203154, -0.2798805663982896, -0.36402719732411737, -0.5301148418616239, -0.5511449479231069, -0.40463865637371227, -0.34830908470172056, -0.2078316506696052, -0.1231212218080113, -0.06292373732264293, 0.00149878884672405, 0.13709169883632774, 0.029306011414026275, -0.06718902858299762, 0.01688517451716041, 0.05490030789642119, 0.019872071620289502, -0.003113561439761168, -0.0019073805642316744, 0.004955645509575188, 0.005923987914914326, -9.121456683563954e-09, 1.3595452728478281e-09, 7.366511654624139e-09, -3.712277984828645e-11, 2.0297688170236865e-09, -0.0027065791096089506, -0.008208303777119137, -0.004676079214714524, -0.009386668868236008, -0.021040631844141306, -0.04967353486617891, -0.05440093236216965, -0.06257966812557443, -0.05931290028366331, -0.060258446820239, -0.03932631347715346, -0.039556433322283625, -0.02041024540912131, -0.016858427863122753, 0.00420283693189705, -0.016365808671394012, -0.012463693330968523, -0.011020560820285834, -0.011377173965514124, -0.004293002093239915, 1.3965189741206734e-08, -1.063712029318401e-07, -4.1082547519960625e-09, -1.07594899461886e-09, 1.1103925563790242e-08, -1.497464926817366e-09, -3.8617543010246646e-09, 3.127146484153392e-09, -2.4814972434492273e-07, -4.607871195195619e-06, -3.508486044016315e-05, -0.0001224232818978672, -0.00011842109523750698, -8.454925256059308e-05, -0.0016765452041977665, -0.000683912562292234, -0.0009383926669677116, -0.0018574933124428316, -0.0030535733809992564, -0.008672212476038348, -0.009498531527091847, -0.001601247342334384, -0.0005418899031262216, -0.0018794840260994727, -0.00261772580733189, -0.003297442614382424, -0.005256072649976554, -0.0016331021888257074, -4.431152230497988e-09, -1.1239801032652422e-09, 3.918277809696945e-09, 1.117488790394697e-08], [-1.1495857164753356e-08, 4.033848381662057e-09, -1.4652190880760102e-08, -2.061797259851955e-09, 4.283065716721598e-09, -1.4024698831710802e-08, 2.884733986740659e-09, 1.0644879282680529e-08, 3.631974384473918e-09, 2.4388627702870422e-08, 8.54944758628644e-09, 2.636668225143224e-09, -0.0017790544827262663, -0.003961986088509044, -7.400133990462627e-05, -3.052410369739429e-06, 3.33375799714719e-10, 9.664764599346688e-10, -6.880881039614924e-09, 1.7022243428254898e-08, -9.969893708474174e-09, -2.3758591557404468e-09, -4.146663825968034e-09, 1.7715225699606886e-09, -1.0853075921412467e-08, 1.6625029121913728e-09, -8.846149330595058e-09, -9.204189063182689e-09, 8.825816800749557e-09, 3.0553339376445865e-09, -2.104577268725349e-09, 1.1880954586427261e-08, 9.287303669641982e-09, -3.072370242809924e-06, -0.007140350099457842, -0.010289433967404756, -0.020504832446845877, -0.004887391347552512, -0.014097626298874408, -0.07706832248276053, -0.05234504587556217, -0.012080416082655207, -0.019100892991652848, -0.05040939558907163, -0.04002606701437569, -0.04709619035817473, -0.050396622739070196, -0.06128541638626631, -0.040481993976620466, -0.007876631143933555, -0.0005298990086745315, -1.7174907336137446e-05, 3.4689817163633736e-09, -1.359588331162878e-08, 1.2684021883797998e-08, -1.1058866727155715e-09, 1.4898714785803635e-08, -1.8690032996692165e-09, -2.9644239465883305e-08, 8.605875612624385e-06, -8.291645346046626e-05, -4.248092448577384e-05, -0.0033728247011817437, -0.020061499194666602, -0.04242502916268668, -0.030687374377747805, -0.08236985024450041, -0.2031653035771359, -0.4815803791940297, -0.6203443464418991, -0.33673565214215057, -0.3152027013204722, -0.3075257019013975, -0.1650856850121741, -0.17842629175124516, -0.14817920260524764, -0.10658877961317029, -0.08524374812827344, -0.06826649439349887, -0.024182902501342782, 0.01360968421531451, 0.014383524274390477, 2.9256916076570986e-09, -2.234199030308675e-08, -2.3054907871072117e-08, -2.1149367239100476e-09, -1.3702906446381792e-06, -3.127108119674768e-05, -0.004046047312610172, -0.0018945479371857445, -0.018909235037139573, -0.039222180568706126, 0.01479557090825512, -0.10761485312201303, -0.3040467230042444, -0.4653830939104473, -0.8972095290313938, -1.12752461613266, -0.649573582770471, -0.334458855069134, -0.18713199608466097, -0.08861813972021544, 0.08898899153833871, -0.11590752472508935, -0.3685969500743806, -0.2622889081886124, -0.15055691298401064, -0.20602982582678983, -0.22214120812478494, 0.022933057136921866, 0.0036789013925992474, -6.064974592909133e-11, -1.6531449071874731e-09, 8.907523034605542e-05, -7.47064416654173e-06, 0.002542861624490425, 0.0018258928594997647, -0.026806893128594626, -0.06940103347172945, -0.11037595003143272, -0.145370631343802, -0.2026328698661763, -0.4331839369360048, -0.7002276363147618, -1.166833792870112, -1.176531378384727, -0.5528058920888941, -0.4821546769067911, -0.41942357149107146, -0.34326213770583175, -0.2823198203354989, -0.2771906208124781, -0.18750144622858123, -0.17583735538908227, -0.12293063539317228, -0.09302076098488418, -0.16471728200151745, -0.06470455339425324, -0.005627171351849636, -0.002418266964193452, -9.406974916638283e-09, 3.4861351517026965e-09, 0.00219471276505458, -0.0012212131293099977, -0.043210081879035626, -0.07478056117266765, -0.23304567347516178, -0.2569915253408753, -0.11810431816855409, -0.13190553492504303, -0.37461352697184686, -0.5419095780243857, -0.7104879893297598, -0.5288105599867442, -0.27780318774435664, -0.3789210279546621, -0.8231077221324565, -0.809983528922073, -0.7815445189668794, -0.5636168001901642, 0.05296207164387015, 0.27083172648234405, 0.5308769332424834, 0.20903891414253162, -0.11122380670016944, -0.053539241024600094, -0.0021210567240388853, -0.00047723831776804934, -2.010159497280996e-09, -5.388027799623658e-07, 0.012498899840272793, 0.012405190920315844, -0.060871637920265474, -0.1442454330348614, -0.39150911279263134, -0.43662269823897193, -0.11401293814018652, 0.02773729276325051, 0.19002798014763497, 0.37598050552763645, 0.6064910545367052, 0.5879041301378384, 0.7144236518506948, 0.5890265682533019, 0.059129273222980526, -0.0005179439080896092, -0.03528251850050892, 0.4143940813483151, 0.802208733722915, 1.3668219592716733, 1.050075669093323, 0.601224579100514, 0.0987257505434845, -0.020500807149179283, 0.0005487957080545327, -0.015407541656787373, 3.3577043321695564e-08, -7.3310131874708295e-06, 0.009946695458943413, 0.0185765131748331, -0.16929470850485637, -0.44260951256026015, -0.49242263634172767, -0.5397411081669188, -0.0711084935821574, 0.3937339814046018, 0.5545566824421515, 1.0353701060082843, 1.0931958391054672, 1.0733956023903442, 1.4919066999716601, 1.1472391755423237, 1.239358517904767, 0.9892430572992266, 0.49544491615686753, 0.7392678754872547, 1.2181755214475742, 1.5313449708634268, 1.2893695041908078, 0.9094852569146377, 0.24515646423317042, 0.15036841776010623, 0.022795453833548154, -0.014131514115807592, 1.6446625373794953e-07, -0.007494308901819532, 0.012141713021405626, 0.004755677202585035, -0.2575003560175187, -0.46039346885141225, -0.40667638375445603, -0.4609023484335262, -0.0458595374013532, 0.40088667624832525, 0.4601927545164016, 0.8468510039382856, 0.6737552820747242, 1.0772454379418837, 1.4007535772829973, 0.9021456500045031, 1.3211810233419967, 0.976818886820765, 1.0172174319821485, 1.0417639937137144, 1.0883180836453545, 1.1373973154781971, 1.120066087198315, 0.9531814721666347, 0.40795943190696543, 0.20754593165543547, 0.024048977274554722, -0.006060795208260267, 5.6935647995108565e-08, -0.012273648745183158, -0.003306262640483606, -0.018046122919994648, -0.2892919571925911, -0.40684549412508925, -0.297330471473817, -0.16027826675803072, -0.0640650996267525, 0.44370745100698433, 0.8057761985764934, 0.807218678002808, 0.39655950755602, 0.599599541980041, 0.44005640465970325, 0.38168889409306656, 0.3286884925488842, 0.585012965747366, 0.9025510332414447, 0.7945065034646028, 0.9857255622921147, 0.7769649193643267, 0.7172321511647888, 0.6632089362050865, 0.42520884306488965, 0.21901696691691278, 0.026621846818830203, -0.0032888997257696064, 1.1817187358535925e-08, -0.010547263230289036, -0.006887456596721601, -0.04268412365351615, -0.2912813219862447, -0.20463320773684343, -0.17116385219317082, 0.12949796041888478, 0.31576503862428773, 0.34102344928661077, 0.5755100180463198, 0.6906927995908011, 0.05488879323408723, -0.2183956730440762, 0.0689694991235525, -0.04375865633199827, 0.06486112020946642, 0.3907437514889392, 0.6268114431566558, 0.6690367909628203, 0.8417771450139193, 0.5986348132484328, 0.33616817397921184, 0.3762524320064544, 0.2659948609485568, 0.21758607941491379, 0.020846402561982086, -0.002140840983541457, 4.150476593393016e-07, -0.004436383766041743, -0.04383883706128287, -0.06619424598137298, -0.20908844202445728, -0.003286524416235133, 0.05009286064861211, 0.03755180312245674, 0.44839197122137414, 0.3534820165705016, 0.45637093203889423, 0.14165633274050565, -0.49893093425357804, -0.25268005241722447, -0.3290535433740575, -0.18821453319378956, -0.21368675105078222, 0.5224523540375783, 0.706182782068319, 0.7189713183350053, 0.5899457459148509, 0.2830754804922643, -0.016395087627733288, -0.03315813611670189, 0.05764298911394423, 0.0937072761775115, 0.012825879015852455, 0.0015312492785681828, 2.367325422375572e-06, 0.007346552655826752, -0.02310187853803097, -0.05525188378576672, -0.14062075567918111, -0.05189348665269313, -0.1825588884607569, -0.2167618171606056, 0.21302255363732459, 0.194802855629575, 0.5042362198163403, -0.3853752670045294, -0.6727437453573668, -0.05792979585754224, -0.3229977086171253, -0.20008679883848843, -0.887364854643018, 0.2654792320971355, 0.5573735713417716, 0.34467771120818624, 0.3970332731208574, -0.11929468401136643, -0.17602403163166105, -0.3882350721629312, -0.2066595967467635, -0.07596808121255907, -0.007070791024809132, -0.0009197791510655621, -2.3918604291974847e-06, 0.022261546946715925, 0.01168439755787537, -0.034819887775454555, -0.12007521923999405, -0.3075108355774945, -0.4758907306698763, -0.26791364377770815, 0.36000517760290573, 0.05547649889621614, 0.1720227784325052, -0.3572291367378988, 0.059825962223250775, 0.5279149758563403, 0.07020712316477486, -0.44437925811375373, -0.8082464646397273, -0.00814314768515447, -0.1986473268294544, -0.07778103505129834, 0.10346820303724405, -0.22648150726567992, -0.31531562597975993, -0.5539631807149149, -0.35872957501153874, -0.06023852351343782, -0.013702792625894801, -0.004436954845282725, -0.0005722106562956791, 0.011685997398100783, 0.018474723730888383, -0.004400030550715036, -0.06033371248261487, -0.46170561398702253, -0.6226611209772268, -0.16375172780717892, 0.15300613207699199, -0.30477671543660984, -0.2819114623833495, -0.12793289740637276, -0.009172123156592514, -0.2768280073092378, -0.785984274061302, -0.6778374064347052, -0.6788440083949531, -0.0921898359078284, -0.6795794505821667, -0.7280666731521598, -0.2170918272639457, -0.5601757875281088, -0.4931902686800637, -0.49426063672208853, -0.13682045975664092, -0.026927872575669427, -0.014507974771965694, 0.00012937640094284092, -0.00018805654329942707, 0.0006939460162883533, 0.007187444862611527, -0.014345468752916951, -0.0014287777777688263, -0.15374657386043045, -0.25105561562606704, -0.16490287145449475, 0.12454781768737341, -0.49346448070402876, -0.0743190571602268, -0.24239486279171107, -0.5101422404351893, -1.000027668264016, -1.3113670665971993, -0.7286512965357346, 0.10001215342542677, -0.020645038555201414, -0.5738354672183845, -0.9489493539472487, -0.8489105435585587, -0.9494654133865426, -0.6196720524039855, -0.29793140477780944, -0.14775614767694803, -0.15467057008263815, -0.026936550002617993, -0.0017680108645982701, -4.008203298247958e-06, 4.9660661800269475e-05, -0.0051902387121591925, -0.03695022341100802, 0.07113115519921923, 0.26742567887476515, 0.15807138315707706, -0.058916918767892415, 0.14939292085791678, -0.36979532155293515, 0.2583340623857387, 0.03987477720636472, -0.5657952820689744, -0.60673208954161, -0.9565663845872459, -0.4335230107556161, 0.1418288848877159, 0.3901732831146957, -0.09775296251812451, -0.7417149430880818, -0.8774918400862144, -0.8277814618566175, -0.320319055725808, -0.2034940081602492, -0.13417299187431764, -0.14726952772778182, 0.002860675808425708, -2.1710733949685394e-05, 2.655785115073529e-08, 4.6533166322290535e-07, -0.0016083233106705484, -0.02076192426303577, 0.3547313217706281, 0.659398705529954, 0.6173045817589404, 0.1821702021067778, 0.24965900076546602, -0.0648014135243804, 0.2037241637237542, 0.32671863594667966, -0.14735209622310144, -0.00035557292023506585, -0.1460611978724997, 0.38085602740188146, 0.5231253447397095, 0.9706782332931536, 0.4634706437593817, 0.06021907510089688, -0.14497172353944587, -0.4516146904724329, -0.13031365563742625, -0.1494344536477303, -0.10713254604314829, -0.049812772488726925, 0.010726513966342902, 0.006016138146680688, 0.0006778263456371421, -3.409280145140736e-05, 0.004721738728887301, -0.023134332123422263, 0.4632633823736325, 0.8848184444019622, 0.9134565971403377, 0.3009411759977323, 0.2926819417065687, 0.06461828207482596, 0.2714743002057612, 0.2909497530654177, -0.10160301580079407, 0.04630717026461454, 0.2035832958493945, 0.30550172112851876, 0.5825760790885839, 0.3448359537358874, 0.6874966989175766, 0.5775356767993767, 0.19919548352098576, -0.33892268274632925, -0.2328378597349981, -0.31210249420878716, -0.08500123416865389, -0.038466098650886314, 0.024266526039632055, 0.011502935680018, -4.912686980051432e-06, 0.011881829744766863, 0.02117908713754556, -0.04747594172018945, 0.4641680051597567, 0.8798326922516397, 0.9990235035623641, 0.7257682282805983, 0.454753876689977, 0.3436782936019589, 0.2884310279235466, -0.31907005715471654, -0.6474449917455486, -0.4541605983072593, -0.18754437047012107, -0.47541223185130266, -0.25864318790762664, -0.4164026858728259, 0.710017964981244, 0.7278805235904566, 0.2623341386563832, -0.23798777378226407, -0.33404397268101127, -0.2618999993126134, -0.10308958047716858, -0.02396989705984817, -0.0016307177433548745, -0.0002472716017967039, -1.297816393624324e-08, 0.030281858604564397, 0.027642073801065925, -0.010803662033326134, 0.43261253431642616, 0.6727010012612983, 0.907556148877996, 0.8479782383024275, 0.717742751721135, 0.14052827421325764, -0.5817882045774386, -1.0323592781512585, -1.3916067714431115, -0.5036894158416589, -0.8999875762763032, -0.9482715038194207, -0.808360395256115, -0.20748671339702007, 0.32002124943776, 0.6148816889932243, 0.0862557948883901, -0.40093124877290987, -0.43194580038327224, -0.41332584239814163, -0.21724324616844506, -0.013243741959714072, 0.0014332797932374356, -2.1628204146988823e-08, -2.117265715905163e-06, -1.1755272950390294e-06, 0.007676671573149772, 0.010577119669609227, 0.28952629400846136, 0.5424466524691965, 0.7566521335137912, 0.6340909368178139, 0.15107068439418384, -0.11444571658449845, -0.7082344863734356, -0.6571056885644124, -0.8892689216565515, -0.6984063303451218, -0.9286944676374425, -1.0386788704135035, -0.47913928745884365, -0.8115562464771534, -0.13518582855257136, 0.1492412297396291, -0.028718248057186483, -0.3142022374215733, -0.34455639655567544, -0.32619268963128023, -0.1944203180737965, -0.023512590425808198, 0.006348096387479568, 1.6511109404645586e-05, -2.041896964741722e-06, 1.4311762373184647e-06, -0.005707330247023649, -0.020932193495085294, 0.07322108417249393, 0.24572380864168478, 0.5359783025275007, 0.616788372782102, 0.30020814801054446, -0.12831467863575138, -0.35142431316586425, -0.22277961995514822, -0.34645967588845783, -0.18482958243557626, -0.3317617998574064, -0.7834033404764832, -0.3425267874996479, -0.458152291277347, -0.23090596225822668, 0.05594256710752457, -0.16909074697660845, -0.12918822931739474, -0.02981040189923781, 0.036772492651560545, 0.041127389820125634, 0.006210294409187205, 0.002061015085788933, 3.0460395145321686e-05, 4.163590225593807e-09, 3.5172980013644464e-09, -0.00013696146222492878, -0.004102088877111416, 0.026989547178928593, 0.060514031068118965, 0.20918018895866405, 0.34933160306141087, 0.410221981975987, 0.2852456231132755, 0.33207088362969256, 0.30088012122757324, 0.30011367587783433, 0.3783078731326223, 0.08740554932466822, -0.09692335590165509, 0.19074453871393512, 0.16815627497725097, -0.15323860180544038, -0.0373667330003564, -0.06429181968469158, 0.08589941458842403, 0.20019727713090663, 0.22901914173331323, 